{"in_dim": 105, "dropout": 0.3, "layers": [{"W": [[0.0344523, -0.0823159, 0.0606583, -0.0038209, -0.0820885, -0.0459511, -0.0303637, 0.056554, 0.0059366, 0.0998975, 0.0941456, 0.0389764, -0.0006476, -0.0221327, -0.024652, -0.0548859, 0.055632, -0.1019053, 0.0639121, -0.0882157, 0.0430929, -0.0006819, 0.0685845, -0.0005713, -0.0296757, 0.0432513, 0.0443498, 0.0412877, 0.0654809, -0.097533, 0.019126, 0.0586765, -0.0007177, 0.0337062, 0.0035122, 0.0366126, 0.0030482, -0.0316139, -0.0056405, -0.0548447, 0.0297338, -0.0780945, -0.0229764, 0.0627195, 0.1023544, -0.0003432, -0.0051791, 0.0088, 0.0707154, -0.0379678, -0.0278409, 0.0262797, 0.0427305, -0.0085203, -0.0534403, 0.0236249, -0.0738447, -1.03e-05, 0.0036203, 0.0013217, 0.0048034, 0.0403856, 0.0563554, -0.046832, -0.0009537, 0.0233633, -0.025553, -0.0259032, 0.0530053, 0.0232307, -0.0286695, -0.0705671, 0.0728029, -0.0836535, -0.0297148, 0.1107147, -0.0049302, -0.0087793, 0.0132818, -0.0072376, 0.0907602, -0.0521749, 0.003836, 0.0044352, -0.0412095, 0.0015502, 0.0817333, 0.0588139, 0.0079008, 0.1004645, -0.0635373, -0.0562227, 0.0730708, -0.0330502, -0.0548298, -0.1005399, -0.0776956, 0.1090228, 0.0661383, 0.0900284, -0.0549552, -0.1161599, -0.0370151, 0.0235736, 0.0046721], [-0.0344218, 0.0390971, -0.0386243, -0.0848521, 0.0226559, -0.0533108, 0.0889642, 0.0497458, 0.0315219, 0.0518079, -0.0470637, -0.0404155, -0.0026025, -0.0638107, -0.0030547, -0.0065919, -0.0507202, 0.0438739, -0.0564561, 0.0124703, -0.0517304, -0.032152, -0.0338646, 6e-07, 0.0659151, -0.0432849, -0.0444399, -0.0724207, 0.0721091, 0.057607, -0.0015426, -0.0480139, 0.0058204, 0.0937347, -0.0003982, -0.0006244, 0.0560359, 0.011091, -0.0094269, -0.114243, -0.090383, 0.0329367, -0.0277237, 0.0618033, -0.0269724, 0.0008108, -0.0820283, -0.1056908, 0.0627606, 0.0341785, 4.85e-05, -0.0344496, -0.001298, 0.0926062, -0.0665338, -0.0078752, 0.0176874, -0.0085806, -0.0373899, 0.0011121, -0.050281, -0.0009017, -0.0190343, 0.1053851, 0.0436147, 0.074768, -0.0386573, 0.112659, 0.0386552, -0.0823803, -0.0197619, -0.0899137, -0.0283156, 0.0364682, -0.0612683, 0.105377, -0.0004722, 0.0121292, 0.0234856, -0.0166067, -0.0197232, -0.0359306, 0.0796089, 0.0728938, 0.0254195, 0.0778877, 0.1246578, 0.0859066, -0.0656745, 0.0472007, 0.0181557, 0.0094887, -0.0311678, -0.002632, -0.1048234, 0.0674003, 0.0832539, -0.0144203, -0.0794659, -0.0712024, 0.01024, -0.0262244, 0.0287244, 0.0352669, 0.09829], [-0.0499626, 0.0571464, -0.0771146, 0.1240624, 0.0665134, 0.0063233, 0.0315181, 0.0024161, -0.0038331, -0.0613858, -0.0200739, -0.0287961, -0.0095338, -0.0313934, 0.044689, -0.0313249, 0.0018491, -0.0061403, -0.1019731, -0.0806999, -0.0642536, -0.0001953, 0.0974155, 0.0357936, 0.1148824, 0.0705758, 0.0384617, -0.0521187, 0.0521034, -0.0118527, 0.001097, -0.0594917, -0.0158594, -0.1104148, -0.0004114, 0.0270741, -0.0838933, -0.1235151, -0.0523632, 0.1206513, -0.0022006, -8.55e-05, -0.0524361, 0.1164007, -0.1273683, 0.0083356, 0.0077467, 0.0249411, -0.0917697, 0.0015399, -0.0004168, 0.041217, 8.17e-05, -0.1248238, 0.0239618, -0.0064316, 0.0320287, -0.0155894, -0.0382329, 0.0355295, -0.0405749, -0.0542269, -0.0309602, 0.0642854, -0.1089351, -0.0620601, -0.0728019, -0.0598813, 0.096853, 0.0586943, 0.0741159, 0.0774358, -0.0358728, -0.0144467, -0.1137154, -0.0246892, -0.1068113, -0.0677324, 0.0494119, -0.0074057, 0.0243344, -0.0594858, -0.0889418, -0.0168596, 0.0467655, 0.0523433, -0.0636709, 0.1238528, -0.0594018, 0.0403174, 0.0594056, 0.0340401, -0.0648426, 0.0987207, -0.0486979, -0.0273943, -0.0635479, -0.1151588, -0.0344513, -0.1101798, 0.0792226, -0.0732556, -0.0724845, -0.0077955, 0.026772], [0.1156209, -0.1065371, 0.0948432, 0.038624, -0.0921521, 0.0132259, -0.0063017, 0.0532712, -0.0637813, -0.0359763, -0.0394285, -0.0185293, -0.000112, 0.013011, -0.0855245, 0.0228931, 0.0680791, -0.1161884, -0.1141499, -0.0473821, -0.0042434, -0.0231764, 0.0143298, -3.88e-05, -0.0698508, 0.1088805, 0.057611, 0.0671219, -0.0136771, -0.0972508, -0.0002206, 0.0673664, 0.0036057, -0.0648135, 0.0251226, -0.0028094, 0.0069062, -0.0471223, 0.0635352, -0.1135635, -0.0697193, 0.0083933, 0.0532133, -0.0537829, 0.084334, 0.0363789, 0.021525, -0.0536187, 0.0244522, -0.0005878, -0.0002323, -0.0417568, 0.010293, -0.0205102, -0.0512475, 0.0717625, -0.0051679, 0.0204695, -0.0004447, 0.0119551, -0.0078738, -0.0388769, 0.1115984, 0.1176005, 0.0954013, -0.0098408, -0.0105036, 0.0265615, 0.0742998, -0.0112521, 0.0103895, -0.0244677, 0.041445, 0.0274257, 0.0221221, 0.017112, -0.1047339, -0.0711141, -0.0617556, 0.0963093, -0.0021195, 0.0133972, -0.012839, 0.0007034, 0.0473235, 0.0236129, 0.0764853, 0.0591339, -0.0669531, 0.0545404, 0.1273037, -0.074638, 0.0450952, -0.0164626, 0.059031, 0.0250116, -0.0753871, -0.0563423, 0.0991608, -0.0410711, -0.0762821, -0.1097161, -0.0547017, 0.0199573, 0.03078], [-0.0739808, -0.0026309, 0.0145397, 0.0514941, 0.056154, -0.0394948, 0.071777, 0.0719466, -0.0876227, 0.0700152, -0.0959394, -0.0615685, 0.0005163, 0.0206519, 0.0780924, 0.006635, 0.0477282, -0.0203165, -0.0537758, 0.0049138, 0.0562308, 0.0005446, -0.1055012, -0.0112887, 0.0184056, 0.0762289, 0.0270334, -0.0750835, -0.0540297, 0.0659157, 0.001548, -0.0392387, 0.0217191, 0.0140064, 0.0115078, 0.0347961, -0.0494692, 0.0258392, -0.0865241, 0.0800673, -0.0403157, 0.0984375, 0.0723678, 0.0156811, -0.101249, -6.37e-05, -0.0628736, 0.0147791, 0.0373967, 0.0076904, -0.001553, -0.0235576, -0.0298815, 0.0438146, -0.0012882, 0.0616821, 0.1119838, -0.0014881, -0.0107907, 0.001358, 0.0292702, -0.003044, 0.0436914, -0.1147125, -0.0246233, -0.0734915, 0.0610629, 0.0184075, -0.0357863, -0.0935647, 0.0079515, 0.0956439, -0.0155192, 0.0126963, -0.0868221, 0.0593817, 0.1052232, -0.0772021, -0.0530212, 0.0005406, -0.0743429, -0.1013451, 0.0097434, -0.0431987, 0.0185779, 0.0553285, 0.0862788, 0.03856, -0.1161708, -0.0590007, 0.0884466, -0.1000473, 0.0837237, -0.0346046, 0.0596343, 0.0742306, -0.0720673, -0.0931396, -0.0223387, -0.0347571, -0.0738441, 0.0895008, 0.0027862, -0.0286206, -0.0132372], [0.0733421, -0.0228035, 0.0156764, 0.0524183, 0.0335119, -0.0246877, 0.1011433, 0.0126694, -0.0394905, 0.0891369, 0.0865206, 0.0426041, -0.0309194, 0.1021751, -0.0248963, -0.0826368, -0.0523261, -0.082773, 0.0666518, 0.0306214, -0.0726407, 0.0287199, 0.1176269, 0.0040371, -0.0316494, 0.108817, -0.053, -0.0342769, 0.016254, -0.0746755, 0.0205762, -0.0411109, -0.0010749, -0.0564518, -0.0155467, -0.0001579, 0.0813609, -0.1025133, 0.0037715, 0.029469, -0.0493104, -0.0988171, 0.0288634, -0.0615733, 0.0402569, 0.0001025, -0.0151469, -0.0218142, 0.0623016, -0.0316384, 0.0035439, -0.0002135, -0.000368, -0.0764843, 0.0118281, -0.0881734, 0.0264702, -0.0023843, 7.42e-05, 3.01e-05, -0.0353875, -0.0972795, 0.0111051, 0.0919025, 0.0105496, 0.0081864, -0.0266524, -0.0400589, 0.0269428, -0.0290198, 0.0123476, 0.0594434, -0.0409546, -0.0597056, 0.0127674, -0.033464, -0.0430711, -0.0367535, 0.0524993, 0.0176968, 0.0033504, 0.0919686, -0.0411192, -0.0753635, 0.0640957, 0.0087704, 0.0205811, 0.1109679, 0.0888374, -0.0201641, -0.0025937, 0.0329702, -0.0388761, -0.1314542, -0.0248461, -0.1163761, 0.0467788, 0.0571591, -0.1082287, 0.0126256, 0.1177469, -0.0883744, -0.0322729, 0.0428055, -0.0404461], [-0.0941476, 0.0475505, -0.0258227, 0.0533187, -0.020313, 0.0965233, -0.0514501, 0.0716123, -0.0617872, -0.0409783, 0.0616863, 0.028872, -0.0205469, -0.0200694, 0.0653626, -0.0665091, 0.0096254, 0.0700992, -0.0990314, 0.0091265, -0.0892718, -0.0380946, 0.0266073, -0.035315, -0.0187007, 0.0589272, -0.0192753, -0.0549809, 0.0682668, -0.1034924, 0.0004047, -0.0810738, -0.0076843, 0.013056, 0.0425273, 0.0009779, -0.1164338, 0.0134174, -0.0262269, -0.0539472, 0.0147504, 0.0671855, -0.0564629, 0.02033, 0.0041398, 0.0002297, -0.0318795, -0.0851899, 0.0334681, 0.0226791, 0.0271169, 0.0289704, 0.0001601, -0.0168494, -0.0491235, -0.0273528, -0.0041255, 0.0001358, -0.0195257, -0.019416, 0.0699546, 0.0605325, 0.095089, 0.0723139, 0.0501702, 0.0644419, 0.0680686, -0.0160946, 0.0349597, 0.0465502, 0.0262301, -0.0268689, -0.0530575, -0.0952444, -0.085276, 0.0275537, 0.0878232, -0.0119779, -0.1016652, -0.0548981, 0.0331484, 0.0280858, -0.065014, -0.0504533, 0.0981118, -0.0872329, 0.0738503, 0.0249796, -0.0282443, 0.0974769, -0.0794898, 0.0933589, 0.0705433, 0.0351613, 0.0536083, 0.0402436, 0.0709998, 0.0294133, -0.1071739, -0.063862, 0.0135476, 0.0746848, -0.0269564, 0.043021, 0.023579], [0.0423518, -0.1130616, 0.1208735, -0.0762166, -0.0143755, -0.0644621, 0.0588493, 0.0975279, 0.0511326, -0.0081026, 0.0561369, -0.0493238, 0.0298417, 0.0851834, 0.0456411, -0.0061821, -0.0701284, -0.0983449, -0.109753, 0.0320948, 0.0680546, 0.0143622, -0.0157415, -0.0112358, -0.0619814, 0.1108138, -0.1218712, -0.072149, 0.0407263, -0.020074, -0.0050791, -0.0480595, -0.040425, 0.0580527, -0.0035778, 0.0012245, 0.0590143, -0.0759371, 0.1195544, -0.0529592, 0.0397818, -0.0131164, 0.0949062, -0.0829148, -0.0214795, -0.0039542, 0.0853753, -0.0681732, 0.0723789, -1.34e-05, -0.013296, 0.0013574, 0.0002953, -0.036149, -0.0433732, -0.0275145, -0.0033224, 0.0033785, 0.0006392, 0.0201431, 0.0077378, 0.0880646, 0.0636835, -0.0392432, 0.0959061, 0.0469868, 0.087362, -0.0668341, 0.0179323, -0.1060926, -0.0390511, -0.0621251, -0.0391244, -0.0892375, 0.0512771, 0.0725998, 0.0100892, 0.0264246, 0.0148959, 0.0232543, -0.0965878, 0.0146971, 0.0786815, -0.0271875, 0.02308, 0.0611501, 0.0841954, 0.0011895, 0.0851093, -0.0147796, 0.0211797, 0.0558293, -0.0274587, 0.062702, -0.0180696, -0.0713324, 0.0523534, 0.1037122, -0.0689003, 0.0525696, 0.0230893, -0.1021759, -0.0123843, 0.0265433, -0.0562714], [0.0289242, -0.0090543, 0.1024857, 0.0353886, -0.0744115, 0.0133111, 0.0552818, 0.0289342, -0.0417986, 0.0627304, 0.1245126, -0.0603833, -0.0002371, 0.0918606, -0.0320965, 0.036831, 0.0135072, -0.0865699, -0.1094153, -0.0844836, -0.0517579, 0.0122086, 0.0242225, 3.16e-05, 0.055396, 0.0329852, -0.0610474, -0.0220723, 0.0851318, -0.0729321, -0.0015507, 0.0592727, -2.09e-05, -0.0542371, -0.0092878, -0.0368721, 0.0491287, -0.0720115, -0.0305029, 0.0734967, -0.012778, 0.0560836, -0.0584202, -0.0559137, -0.0243666, -0.0009181, -0.0416697, -0.0410224, 0.0413338, -0.0001252, -0.003006, 7.51e-05, -0.0006836, -0.0677907, 0.1089304, -0.0494797, 0.0036957, 0.0080619, -0.0006666, 0.0011844, 0.0969266, 0.0962891, 0.0160549, -0.0031866, -0.01816, 0.1018197, -0.0199263, 0.0372188, 0.042321, 0.0517586, -0.0354115, 0.0181971, -0.0768818, -0.061857, -0.0644466, -0.0626707, -0.1027067, 0.0312092, 0.0429505, -0.0228446, -0.1105914, 0.1001977, 0.1170653, 0.105695, -0.0650091, -0.0537766, 0.0948028, 0.0334668, 0.1031169, 0.0461282, 0.0981173, -0.0728869, -0.0475176, -0.0188375, 0.1125639, -0.0884161, 0.028261, -0.0076674, -0.0390001, -0.0075523, 0.0942884, 0.0554729, 0.1031428, 0.1139113, 0.0293953], [0.0323985, 0.0441726, -0.0249102, 0.0690108, -0.0072935, -0.0302546, 0.04243, 0.0821598, 0.0637005, -0.0090615, -0.0708773, 0.0713063, 0.0002544, 0.0873404, -0.0434538, 0.0671234, -0.0059352, 0.0788815, 0.0220012, -0.0401322, 0.0446048, 0.039605, -0.0833463, 0.0411397, 0.0467223, 0.0715043, 0.0390932, -0.0501878, -0.0433619, -0.0019941, -0.0152788, 0.0232873, 0.0029078, -0.0405598, 0.0340658, -0.0014758, 0.0897352, 0.093683, -0.0306127, -0.0914207, -0.0458721, 0.0693247, -0.0780115, 0.0003302, 0.053095, 0.0015504, 0.0607211, -0.0837537, 0.0130358, 0.00204, -0.0293109, 0.0011241, -0.0045161, -0.010965, 0.1137812, 0.0837193, 0.06512, -0.0025963, -0.00062, -0.0002187, 0.0708264, -0.0798965, -0.0393299, -0.0989989, 0.0259338, -0.0327528, -0.0532347, -0.111924, -0.0482841, -0.070736, 0.0448954, -0.0716606, -0.062175, 0.1130901, -0.1048053, -0.0927614, -0.0583004, -0.0874693, 0.0867559, -0.0449103, -0.0871603, 0.043391, 0.0736171, 0.0240005, -0.0158408, 0.0187196, 0.030332, 0.0857619, 0.0444453, -0.0930131, -0.082835, -0.0838524, -0.0392486, 0.1014231, -0.0967321, 0.0016325, 0.06361, 0.0324422, -0.0275541, -5.29e-05, -0.1006482, -0.0377839, -0.1014781, -0.0868211, 0.0898981], [0.0121203, -0.0756978, -0.0233423, -0.0977678, -0.0708461, -0.0184335, -0.0366412, 0.0390547, 0.0533281, 0.0940673, -0.0309507, 0.0028766, 0.0428257, 0.0205411, -0.0998274, -0.0531798, 0.0425299, -0.0408212, 0.026935, -0.082791, 0.0227007, -0.0011951, -0.0152485, -0.0001675, 0.0899977, 0.0805591, 0.0675786, -0.0082272, 0.0763278, -0.0296824, 0.0167025, -0.0278857, -0.0042385, -0.0623598, 0.0001609, -0.0009832, 0.0760635, -0.0520363, 0.0720313, -0.0586205, 0.0324541, 0.0077949, -0.04261, -0.0118402, -0.077969, 0.0002063, -0.0528597, -0.0721756, 0.0867531, 0.0103324, -0.0004186, 0.0099246, -0.0265986, -0.0585312, -0.0489176, -0.0572389, -0.0431727, 0.0215625, -0.0129996, 0.0005889, 0.0589457, -0.0490149, 0.0590525, -0.0043738, 0.0677589, 0.1043235, 0.0518298, -0.0493043, -0.0419341, 0.0729184, -0.0459269, 0.0686813, -0.0658532, -0.0821849, 0.0684557, 0.0280017, -0.0603759, 0.0042278, -0.0175395, -0.0664694, 0.0200729, 0.0693164, 0.0086866, -0.0906883, -0.0384242, 0.0377497, -0.0096768, 0.0833629, -0.0187707, -0.0160236, 0.0620418, 0.0015967, 0.083707, -0.0868204, 0.0859988, -0.0442523, -0.0062798, 0.0759623, 0.0262828, -0.0387775, 0.057745, -0.0191751, 0.0564941, -0.0204924, 0.0355741], [-0.0607516, 0.0852324, 0.1011234, 0.0475392, 0.1097869, 0.0539859, -0.1104034, -0.0846359, -0.0263663, -0.1067148, 0.0091948, 0.066178, -0.0106446, -0.0601149, -0.0582753, 0.0487225, -0.0122741, 0.0879633, -0.0353002, -0.0956214, 0.1074879, 0.0427499, -0.0835256, 0.0008597, -0.0573951, -0.0305591, -0.0992986, 0.0388772, 0.0248865, 0.0729714, -0.0339712, -0.0240333, 0.0116177, 0.0179653, 0.0004445, 3.5e-05, 0.0201847, 0.0555082, 0.0593776, 0.1239471, 0.1143144, -0.0769159, 0.0961044, 0.027924, -0.0524974, 0.0304466, -0.0354199, -0.0180721, -0.0299343, -0.0188458, -0.0229668, 0.033761, 0.0390126, -0.0415918, -0.0364724, 0.1061464, -0.0094519, 0.0063446, -0.0303771, -3.61e-05, -0.0155941, 0.0590993, 0.0484551, 0.0384409, -0.0022096, 0.012106, 0.021257, 0.0634034, 0.0369604, -0.0060808, 0.0493235, -0.0496767, 0.1111192, -0.0388244, 0.1102208, 0.0424738, -0.0634196, -0.1143118, -0.0354318, 0.0812201, 0.1105618, -0.1096967, -0.0307685, 0.0567264, 0.0027882, -0.0811256, -0.0025848, 0.072612, -0.0407676, 0.0252295, -0.0125575, 0.1066302, -0.0036147, 0.0510316, -0.0001562, -0.0798724, 0.0305795, 0.0644749, 0.0618016, -0.1210887, 0.0593545, 0.1189878, -0.023142, -0.0961833, -0.0587429], [0.0423045, 0.0766141, -0.0320821, 0.0403939, 0.0220205, -0.0670725, 0.0425861, -0.036268, -0.1047998, -0.0023553, 0.0281274, -0.0624529, 0.0001613, -0.1014656, 0.0495101, 0.0374646, 0.0257072, 0.0046093, 0.1163532, -0.0697315, 0.0006636, -0.0197498, -0.08491, 0.0292784, 0.0746875, 0.0545214, 0.0709339, -0.0328127, -0.0459372, -0.0607763, 0.0336539, 0.0104565, 0.0001187, 0.0578222, 8.2e-05, -0.018656, 0.0252304, 0.0464745, 0.078053, -0.1065183, 0.0673886, 0.0286548, -0.0700038, 0.0110154, -0.0409427, -0.0003494, -0.0640723, -0.0017566, 0.0934483, -0.00061, 0.0005598, -0.005654, 0.0180778, 0.0674495, -0.02179, -0.02, 0.1113436, -0.0424647, 0.0013672, -0.017488, -0.0267253, -0.1153971, 0.0001473, 0.0567574, -0.0429139, 0.0230386, -0.0391333, -0.0618406, -0.0925458, 0.0216186, 0.0907348, 0.094798, -0.0176524, 0.0461364, 0.1037418, -0.0841562, -0.0668195, -0.1056504, 0.0780185, -0.0626909, -0.0623431, 0.0067763, 0.0313566, 0.0193121, -0.0854819, 0.0663962, 0.0451852, -0.0108947, -0.0893716, -0.0800667, -0.0614759, -0.0605891, 0.0245404, 0.0949416, 0.0120134, 0.0687221, -0.0336124, 0.0332145, 0.057986, 0.0741413, 0.0542449, -0.015726, 0.0144142, -0.061863, -0.0467209], [0.0708737, 0.0073272, -0.0253498, 0.0290253, 0.0360383, -0.0310965, 0.0456982, 0.0556478, -0.0800564, -0.1155386, -0.0437234, -0.0659137, 0.0149837, -0.0587298, 0.0829497, 0.0333802, -0.0614771, -0.0289822, 0.0385596, -0.0801094, -0.0069495, -0.0412375, -0.0765651, -0.0116617, 0.0826278, -0.1056362, 0.121872, -0.1109565, -0.1062485, 0.0546959, 2.35e-05, 0.0383706, 0.0001316, 0.0229391, 0.0264027, -0.0173248, -0.0883056, 0.0554725, 0.0737822, -0.023511, 0.05997, -0.0358843, 0.0458653, -0.011442, 0.0221955, 0.0009731, -0.1128144, -0.0548834, -0.0373297, -9.11e-05, -0.0002269, -0.0317255, -0.0060979, -0.0563681, 0.0396692, -0.0623706, 0.1012001, -0.0011473, 0.034869, -0.0008065, 0.0531812, -0.0578955, 0.0322376, -0.0518794, 0.0007029, 0.0622865, -0.033322, -0.0018093, 0.0164508, -0.0414763, -0.0481417, 0.0040596, -0.0190904, 0.1039554, 0.0167911, -0.0118435, 0.0426274, 0.0440507, -0.0237437, 0.0767259, 0.0648001, -0.0653536, -0.0776104, -0.0367474, 0.0716049, 0.0250639, -0.0519862, 0.0402168, 0.1138586, 0.1059371, 0.0359729, -0.1185481, -0.0134368, 0.01805, -0.0871837, -0.0340497, 0.0102585, 0.0583153, 0.0453441, 0.0211986, 0.0337675, -0.0646402, 0.0307462, 0.0076514, -0.0801155], [-0.1154151, -0.0338597, 0.0077478, 0.053091, 0.0391853, -0.004048, 0.0134218, -0.0915565, 0.0281802, -0.0798856, -0.0801666, -0.101277, -0.0013313, -0.078586, 0.0805122, 0.0760465, -0.0020246, 0.0748949, 0.0672033, 0.0509515, -0.061821, -0.0004062, -0.0359841, 0.006497, -0.0674489, 0.0355517, 0.0466313, 0.0343662, 0.0692159, 0.0060252, -0.0251647, -0.1044641, 9.5e-06, 0.0293854, -0.0005863, -0.0285135, -0.0954693, -0.0844884, -0.085557, 0.0351075, 0.0166197, -0.0825742, -0.0059645, -0.0196584, -0.0154278, 0.0006946, -0.02781, -0.053507, -0.0085282, 0.0140063, 0.0319551, -0.0005486, -0.0310021, 0.0307836, 0.0598503, -0.004457, 0.1175342, 0.0044932, 0.0002389, 0.0157568, 0.0455541, -0.0833442, -0.0974745, -0.0230591, -0.0590611, -0.089633, -0.0893811, 0.0326203, -0.0596287, -0.0461451, 0.0894694, 0.0238531, 0.0476941, -0.0620234, -0.0055579, 0.0326705, -0.0571614, -0.0419502, 0.0284719, 0.0961144, 0.1087231, 0.0412837, -0.0487729, -0.0055511, 0.0329557, -0.0878365, -0.0981726, 0.0103951, -0.0396789, 0.0050933, -0.1114059, -0.0202236, 0.0794859, 0.0426606, -0.0897149, 0.0423983, -0.0423216, -0.0843979, -0.0243677, -0.0856776, -0.0704043, 0.0383812, 0.0433542, 0.0239325, 0.0890171], [0.0851313, -0.0456353, 0.0985962, -0.0282114, 0.0476291, -0.0689498, 0.0856475, -0.002958, 0.037483, 0.087753, -0.021018, 0.0583602, -0.0012369, -0.0237857, 0.0028334, 0.0700549, 0.0325912, 0.0509029, 0.0581888, 0.0572783, -0.0656413, -7.34e-05, 0.0574896, -0.0002369, 0.0258767, 0.0950408, 0.031517, 0.011176, -0.0676323, 0.0403013, -7.8e-06, 0.0881968, -0.0006765, -0.0722152, 0.0121716, 0.0001627, 0.0103226, -0.0704567, -0.0918243, 0.0576793, 0.0548806, 0.0453463, 0.0740793, 0.0578173, 0.0545595, -0.0010049, -0.028596, 0.0231473, -0.1014039, -0.0105275, 0.03632, -0.0006219, -0.0004579, -0.0383477, -0.1146667, -0.0552067, -0.0620241, 0.0011943, 0.0005482, -0.0134937, -0.0557932, -0.0481916, -0.0865275, -0.0136932, -0.0059981, -0.0189866, -0.0356568, -0.0361982, 0.0702062, 0.0714568, 0.0118557, -0.0716026, -0.0437582, 0.0515266, 0.0150878, -0.0056285, -0.0252516, -0.0857622, -0.0757239, 0.050007, 0.0912378, 0.0551601, -0.0463875, 0.0053187, -0.0807535, -0.0857911, -0.0832747, 0.0603091, -0.1174401, 0.0629952, 0.051509, 0.0097871, 0.0190398, 0.0352827, 0.1094664, -0.0121331, 0.0848126, 0.0451012, -0.0503653, 0.0696573, 0.0389396, 0.0477908, 0.0171216, -0.0770275, 0.0771866], [0.0279049, -0.0269372, 0.020962, -0.0584739, 0.0184897, -0.0984605, 0.0709642, 0.0805306, -0.0471093, 0.0473623, 0.0083302, -0.0381621, 0.0392014, -0.0047199, -0.0584444, -0.0938299, 0.0089107, -0.0535028, -0.0739048, -0.0597075, 0.0664153, -0.0066563, -0.0492894, -0.0067916, 0.0192895, -0.0209708, -0.0934504, -0.033255, -0.0414306, 0.0104899, -5.3e-06, 0.0867274, -0.0007064, 0.0145509, 0.0301265, 0.0005474, -0.023981, 0.0705834, -0.026165, -0.0706996, 0.0560862, 0.1069982, 0.0646044, -0.0359527, 0.1018027, 0.0054323, 0.0250274, -0.0041315, 0.0701496, -0.0029024, 0.0013842, 0.0082719, -4.93e-05, -0.0164586, 0.0013537, 0.0213597, 0.0739862, 0.0317235, -0.0387179, -0.0245799, -0.0729216, 0.0102996, 0.0350028, -0.0469329, 0.0539006, -0.081178, 0.0933882, 0.0011192, 0.0499687, 0.075958, -0.0127105, -0.0658476, -0.0477713, 0.0765575, -0.0233374, 0.0073344, -0.0833568, -0.0745983, -0.024327, 0.0310134, -0.0625101, 0.0255576, 0.0986406, 0.0947011, -0.004184, 0.1129928, 0.1078159, 0.0472083, 0.1053486, 0.0186102, -0.0451741, 0.0789887, 0.0303881, 0.0105041, 0.0059626, -0.0095103, -0.0648212, -0.0446202, -0.0552427, -0.0311881, 0.0422273, -0.0482516, 0.0047151, -0.0117621, -0.0331517], [0.049628, 0.0121309, 0.0942138, -0.0376396, 0.0570115, -0.0922599, 0.0292242, 0.0231772, 0.1127742, 0.0684298, -0.0321459, 0.0561159, -1e-05, -0.0611382, -0.0877872, -0.0934801, 0.0975139, 0.061235, -0.0929421, 0.0260142, 0.0698196, 0.0003778, 0.0975996, 0.0239399, 0.0651209, -0.046072, 0.0721529, 0.0194755, 0.0725795, -0.1136416, -0.0011877, 0.0476104, -0.0175472, -0.0788245, 0.0006731, 0.003158, -0.0612026, 0.010726, -0.0840196, -0.0286509, -0.054419, -0.0712674, 0.0168379, -0.0171978, -0.0810826, 0.0021995, 0.055236, -0.090026, -0.0597413, -0.0013584, 0.0015532, 0.0001778, 0.0177683, 0.0961449, -0.0941514, 0.1171051, -0.0101564, -0.0377939, 0.0076692, 0.02339, 0.0112722, -0.0669273, 0.0920474, -0.0315482, -0.0493071, -0.0065144, 0.0208606, 0.034891, 0.06581, 0.0051401, -0.0325332, -0.0773579, -0.0574825, 0.0401101, -0.0079696, 0.0855289, -0.0279332, 0.0299732, -0.0758827, 0.0023204, -0.0756983, -0.0757224, 0.0909035, 0.0562056, 0.059279, 0.1026217, 0.09386, -0.0721622, 0.1068978, -0.0549649, 0.0503171, -0.1024488, 0.0780007, -0.0401297, 0.0893659, 0.0258341, 0.0446561, 0.0047002, -0.0999388, -0.0837349, -0.0685034, -0.0774202, 0.1166776, 0.0372459, 0.0323842], [0.1061825, -0.1104726, 0.0518662, 0.0146724, -0.1324327, -0.125222, 0.1293916, 0.0180512, -0.0517063, 0.1183677, 0.0355205, 0.0717445, -0.0003413, 0.0771747, 0.0392972, 0.0029613, -0.0452689, 0.01857, -0.1106431, 0.0213611, -0.1192005, 0.0004226, 0.0048045, 0.0006733, 0.0208388, -0.0353882, -0.1199989, 0.0837311, -0.0405733, -0.1004684, 0.0007843, 0.0005368, -0.0236297, 0.0233403, -0.0014524, 0.0333575, 0.0568543, 0.042105, 0.0072273, -0.0474411, -0.012249, -0.04313, 0.0608976, 0.0170167, 0.0953198, -0.0051176, 0.0384663, 0.029246, -0.0216907, 0.0157203, 0.0228765, 0.0004046, -0.0122843, 0.0947652, 0.0713953, -0.0260058, -0.0756121, 0.0338362, -0.0332084, -9.06e-05, -0.0023474, 0.0061283, -0.0383053, -0.0133612, -0.0233388, 0.0317729, 0.1019838, -0.0533835, 0.1071267, 0.0091722, -0.0574234, 0.0350566, 0.0036274, -0.0604817, -0.112144, -0.0199496, -0.0620944, 0.0172889, -0.1004894, 0.0948314, 0.0217602, 0.0574715, 0.0124326, -0.002147, -0.0557501, 0.0255716, 0.0875036, 0.0579231, 0.0297251, -0.0844288, 0.0635436, -0.0470422, -0.0382792, -0.0806934, -0.0354674, -0.0586368, 0.0583472, -0.0087082, -0.0352583, 0.0912333, -0.0174179, 0.0142478, 0.0980268, 0.0655371, 0.0779947], [0.0398763, 0.0288006, -0.0820207, -0.0295233, 0.0274641, 0.0132664, -0.0072853, 0.0089779, -0.0348488, 0.0143171, -0.121045, -0.0266528, -0.0307939, 0.0107597, 0.0914557, -0.0137782, -0.0132781, 0.0642062, -0.0299511, 0.0587131, -0.0459943, 4.16e-05, -0.0203087, -0.0315781, -0.0410607, 0.0286455, -0.011056, 0.0742058, -0.0443756, 0.0851762, 0.0013871, -0.077154, 0.0003848, -0.0782606, -0.0010758, 0.0008506, -0.0268607, -0.0871718, -0.0829018, -0.0364276, -0.0353696, -0.1172943, -0.0626551, 0.0010723, -0.0443861, 0.014577, -0.0309745, -0.0730991, -0.1120508, 0.0009724, -8.02e-05, -0.0256647, 0.0004138, -0.0252685, 0.1122061, 0.0091928, -0.1258826, -0.0199236, -0.0222559, 0.0156257, 0.0362537, -0.0312886, -0.0844592, -0.0570226, -0.0820923, 0.0651601, -0.0853799, -0.0113635, 0.0250999, -0.1020095, 0.0659285, 0.0353273, 0.0561873, 0.0898455, -0.0324448, -0.1211721, -0.0425866, -0.1094943, -0.0020468, 0.0557187, -0.0083823, -0.0617941, 0.0447136, 0.0348516, 0.1141322, -0.0373587, -0.0162648, 0.0605702, -0.0645555, 0.048314, -0.0576477, 0.0557883, -0.106245, 0.0522346, 0.0852952, -0.115714, 0.064547, -0.0215133, 0.1174913, 0.0339213, 0.0428832, 0.0179367, 0.03249, 0.0096697, -0.0973094], [0.0795058, 0.0515998, 0.0002733, -0.0979432, 0.0537935, 0.0560708, 0.0416388, -0.0393595, 0.0270502, 0.031258, 0.0975756, -0.1102943, -0.0154146, 0.0200798, -0.0482192, -0.0253591, 0.1217128, 0.0444038, 0.0740608, -0.1174865, 0.053847, -0.0244053, 0.0013848, 0.0095633, -0.0079094, -0.0093265, -0.0244496, 0.1055668, 0.0250854, -0.1281973, 0.0003353, -0.0710249, 3.33e-05, 0.0935086, 0.0282434, 0.000683, -0.0958683, -0.0268363, 0.0732129, 0.0619693, -0.0814914, 0.0514256, -0.0611513, -0.104321, 0.1101453, 0.0024634, -0.0244637, 0.0864163, -0.1000304, 0.0063214, -0.0011608, 0.0013749, -0.0047459, 0.0219672, 0.0852486, 0.0397976, -0.1056715, -0.0101201, 0.0003847, 7.75e-05, 0.0856635, 0.1002676, 0.1095225, 0.0250186, -0.0223224, -0.0437181, 0.0328839, 0.1050944, 0.0687467, 0.0051064, -0.0136529, -0.1177066, -0.0481041, -0.0817355, -0.1127781, 0.1030299, 0.030002, 0.0150141, -0.0745103, 0.0508366, -0.0883819, -0.0528904, 0.0544655, 0.0525456, 0.0356295, 0.126732, 0.1067706, -0.0451041, 0.0907935, -0.0608095, 0.0925226, -0.1168247, -0.0035514, 0.0312065, 0.0138934, -0.0822568, 0.0167473, 0.0991934, 0.0565271, 0.0913505, -0.0079915, -0.0005546, -0.0284861, 0.0147432, 0.0385116], [-0.0306458, -0.0197174, -0.0153561, -0.0793691, -0.1299987, 0.0001537, 0.1031189, 0.1335293, 0.1178914, -0.0480567, 0.106352, 0.1164235, 0.0051246, 0.0783443, 0.0442028, 0.027397, 0.040863, -0.1054324, -0.0192378, -0.1109843, 0.0513145, 0.0361835, -0.0021482, 0.0431572, -0.042911, -0.0453667, 0.0199053, 0.0825067, 0.1155753, 0.0214459, 0.0168468, 0.0659053, 0.003544, -0.0608007, 0.0014718, 0.0002081, 0.1016926, 0.0034435, 0.0646482, -0.0996733, -0.0776254, 0.0317173, 0.0385756, -0.0047846, 0.0239454, 0.0095546, -0.0013825, 0.0851839, 0.1207692, -0.000537, -0.0260893, 0.0001712, 0.0024275, 0.0353902, -0.1007009, 0.013732, -0.0329293, -0.0001824, -0.0001685, 0.0281354, 0.0010328, 0.0856953, -0.0552811, 0.1298041, 0.0477323, -0.0148701, 0.098976, -0.0003516, -0.0236607, -0.0677312, 0.069379, 0.0573875, 0.0179894, -0.044173, -0.0868927, -0.003704, -0.1268983, -0.0788837, -0.0154427, 0.0969923, 0.0124677, -0.0427156, 0.0009123, 0.0681387, 0.0212128, 0.042895, -0.0553054, -0.0095648, 0.1133803, -0.0104604, -0.0239041, -0.0974289, 0.084, -0.0068255, 0.0197908, 0.0347695, 0.0354592, 0.0867279, 0.0402741, -0.0067543, -0.0070721, -0.0811243, 0.0425809, -0.0517508, -0.0160764], [-0.0359203, 0.0130813, 0.0693239, -0.0862446, 0.0073897, -0.0042909, 0.1003799, 0.0982857, 0.0831974, 0.0919528, 0.0341079, 0.1092067, -0.0431801, 0.1027937, 0.0805292, 0.0221534, -0.0048851, -0.048219, 0.0317463, -0.0187989, 0.0545988, -0.0015531, 0.0436697, 0.0009155, -0.1170373, -0.051171, -0.110237, -0.0950511, -0.0918626, -0.0488085, 0.0152809, 0.0162802, 0.0032209, -0.0445105, 0.0368083, 0.0331879, 0.0866687, -0.0427069, 0.0141438, 0.0126731, -0.0680995, 0.0157682, 0.0050521, -0.0823828, -0.0161128, 0.0432614, 0.0452735, 0.0708897, 0.0272355, -0.0014968, -0.0013545, -0.0127372, -0.0003808, -0.0541951, -0.0723786, -0.1013485, -0.0445017, -0.0387777, -0.041947, 0.0353126, 0.0320161, 0.0098761, -0.0552869, 0.0513522, 0.0999958, 0.1185514, -0.0588954, -0.0091022, 0.0976621, 0.0582585, 0.07635, -0.1199402, -0.0539744, -0.0830619, 0.0142712, -0.0730475, -0.01132, 0.0823362, -0.0032906, 0.0055141, 0.0689696, 0.0333439, 0.0710038, -0.0834719, 0.0826275, -0.0101077, -0.0692608, 0.0468032, -0.079129, 0.1060727, 0.0412156, -0.0558991, 0.0266481, -0.0377461, -0.0047919, -0.1231845, -0.0899026, -0.0476989, 0.0119275, 0.0275729, 0.0389437, -0.1262374, -0.0350641, -0.0747115, 0.0349316], [-0.1115187, 0.0911023, -0.0631354, 0.0450688, 0.1085186, -0.0155982, 0.0593255, -0.110448, -0.0108655, -0.1168171, -0.0374118, 0.0747973, 0.0229575, -0.0202318, -0.0236559, 0.0739798, -0.0852468, 0.0771194, -0.0992486, -0.1041021, 0.10581, -0.021886, -0.0670824, 0.0006391, -0.0335087, 0.0254857, -0.0470484, -0.0621849, 0.067559, 0.0941371, -0.0231256, -0.0028428, -0.0255037, 0.0406035, -2.8e-05, -0.0050717, 0.0609234, 0.027641, -0.0456298, 0.0019796, 0.033979, -0.0889508, 0.0171114, -0.0016098, -0.0989953, 0.0085862, -0.0475626, -0.0675782, -0.0958921, 0.0004966, 0.0043431, 0.0011641, 0.0004132, 0.0017031, -0.07657, -0.1168175, -0.0061691, -0.0236264, 0.0004124, 0.0385766, -0.0998142, -0.0942344, 0.0335554, -0.0663331, 0.012479, -0.0372104, -0.10359, 0.0044252, -0.0461231, -0.0439916, 0.0989887, 0.0072236, 0.0579464, 0.0111504, -0.0471583, -0.0207802, 0.0474945, -0.0297699, 0.0148772, 0.0150371, 0.0957948, -0.0189767, -0.0231454, -0.025721, -0.0010074, -0.0697544, -0.0702801, -0.033179, -0.0263027, -0.0860201, -0.0095296, 0.0522509, 0.0473549, 0.0259548, 0.1000931, -0.0742397, -0.0486752, -0.0627448, -0.033153, -0.1044282, -0.0943672, -0.0534591, 0.0807332, -0.071453, 0.010357], [0.0019815, -0.0070482, -0.0127208, 0.0093083, -0.0031417, 0.0265291, -0.1207001, 0.0188713, -0.0367113, -0.0987946, 0.0629746, -0.1063159, 0.0013132, -0.0154835, 0.030073, 0.0135534, -0.0388203, 0.0957068, 0.1047105, 0.0121908, -0.0511025, -0.022141, 0.06543, -0.0153883, 0.0654096, -0.0289897, 0.0692445, -0.1005177, -0.1080715, -0.073269, -4.86e-05, 0.0776347, -0.0002087, -0.0530748, -0.0109416, 0.0010348, -0.0026816, -0.084692, 0.1057695, -0.0874948, -0.1227939, 0.0820856, 0.0177461, 0.0676386, -0.0702982, 0.0001689, 0.0088803, -0.0487606, -0.0545457, -0.0015496, -0.0003844, -7.02e-05, -0.0014835, 0.089972, -0.0078971, 0.0165544, 0.0050482, 0.0006355, 0.0146995, -0.0009238, -0.0081973, -0.1219567, -0.0358362, 0.0626191, 0.0591079, 0.0469495, 0.0030269, -0.0156339, -0.0200375, 0.0273033, 0.084341, 0.1231505, 0.0255326, -0.0769735, 0.0287318, 0.0321391, -0.0814319, -0.0607135, 0.0547274, -0.0973543, -0.0155966, 0.0619077, -0.0984542, 0.0054186, -0.0974067, -0.0552708, 0.0986179, 0.0112325, 0.0611728, -0.0213658, 0.1215128, -0.0889312, 0.0397768, -0.0713531, -0.1062792, 0.0859933, 0.0947206, -0.1041222, 0.0424974, 0.0294167, 0.0685357, 0.0439805, -0.0090933, 0.0252628, -0.0509475], [0.0284564, -0.0309485, -0.0870652, 0.063595, 0.102886, 0.0903507, 0.0524248, -0.1089997, -0.0416266, 0.0330222, -0.052844, 0.0677005, 0.0015533, 0.0571631, -0.0015878, 0.0102213, -0.0376268, 0.0468666, 0.1070895, 0.0282815, -0.0621549, 0.0107513, 0.0357707, -0.0405193, 0.1272077, -0.0941573, 0.0984719, -0.1115991, -0.0270564, 0.0345771, 0.0002994, -0.1093166, -0.0307106, -0.0029573, 0.0001559, 0.0255079, -0.0058991, 0.0257084, 0.0321864, -0.0619291, -0.1131173, -0.0235671, -0.1022042, -0.0594057, -0.0502988, 0.0014678, -0.0023841, -0.1214705, 0.0197777, 0.0003743, 0.0002453, 2.74e-05, -0.0112454, -0.0750614, -0.007833, -0.0074718, 0.0343908, -0.0003831, -0.0177224, 0.0157908, -0.0361904, 0.0480783, -0.088663, -0.0912046, -0.0037049, -0.0039524, -0.0867251, -0.0310283, 0.1220346, -0.0633349, 0.0452795, 0.1027242, 0.0300379, 0.1069855, 0.0010636, -0.0587696, -0.0602374, 0.0439879, -0.0167247, 0.0165288, -0.0790245, -0.052075, -0.0805692, -0.0201591, -0.1020447, -0.0622986, 0.0748352, -0.0346626, 0.0933966, -0.0140033, 0.1076559, -0.0512315, -0.0015735, -0.0255066, 0.0204288, 0.0459774, 0.049069, 0.0322061, -0.0247741, -0.0794083, -0.0068219, -0.0200672, 0.0798479, 0.008743, 0.0468613], [0.0264207, -0.0060379, -0.0451116, 0.1030139, 0.1151074, 0.0182981, 0.0665357, 0.0010621, 0.0630328, -0.0308715, 0.0339031, 0.0195547, 0.011769, 0.0207459, 0.0364394, 0.0196845, -0.0434791, -0.0199961, 0.0009036, 0.0263812, -0.0700931, 0.0210749, 0.0916118, 0.0045433, 0.0408559, -0.0884984, 0.0383828, -0.0240276, -0.018886, 0.0974561, 3.6e-05, -0.0936298, 0.0073466, -0.1076094, -0.001552, 0.0041825, 0.0600057, -0.0974365, 0.0976358, -0.0900009, 0.0374617, -0.0547426, 0.046641, -0.09288, 0.0783712, 0.0059322, 0.0355799, -0.0942079, -0.0900805, -0.0296497, 6.8e-06, -0.0002429, 0.0004251, 0.0328391, -0.0620399, -0.0933873, 0.0753692, 0.0194048, -0.0003404, -0.0013882, -0.0023562, 0.0516206, -0.0055543, 0.0401028, -0.013322, 0.0339422, 0.0274974, -0.028152, 0.0077407, 0.1014921, -0.032448, 0.043936, -0.1233109, 0.0698524, 0.0115161, 0.0203363, 0.0697777, 0.1076369, 0.0339422, -0.0456794, -0.0035911, -0.0448068, -0.1172975, 0.0720802, 0.0397731, -0.1068468, 0.0769402, 0.0197673, 0.0772047, -0.0607599, 0.0287348, -0.0915334, -0.121983, -0.0431661, -0.109829, 0.069194, 0.0082031, -0.0762036, -0.024134, 0.1020408, 0.054925, -0.0226921, 0.0645315, -0.0688597, -0.1009703], [0.0294683, -0.0650492, -0.1024774, 0.1103954, 0.1130403, 0.094399, -0.0611549, -0.1190845, 0.0681749, -0.1122284, -0.0627966, 0.0306412, 0.0003807, 0.0469369, 0.116901, 0.0279049, 0.0689516, 0.1065558, 0.0029741, -0.0435394, 0.0212755, 0.0014266, 0.0424207, 7.31e-05, 0.0541035, -0.0435511, -0.0681898, -0.0898985, 0.0333839, -0.0305166, -0.0007072, 0.0827245, 0.0006967, -0.0187978, -0.0028577, 0.0395366, -0.0137023, -0.1064172, -0.0604629, -0.0102764, 0.076355, -0.0841905, 0.0005408, -0.0426198, -0.0440778, -0.024001, 0.0805153, -0.0800653, -0.1120086, -2.08e-05, -0.0275926, -0.0257484, 0.0015427, -0.073651, -0.0720924, -0.0852719, -0.0979327, -2.75e-05, -0.0006674, -0.0300499, 0.0051387, -0.0975513, 0.0466973, -0.115923, -0.0957603, -0.039303, -0.0928584, 0.025034, -0.0726893, 0.0232741, 0.0812303, 0.0206108, 0.0778131, -0.0768757, 0.0814587, 0.0195655, -0.0220344, -0.0393181, -0.0474137, -0.1044169, 0.0600641, -0.0200416, -0.0675707, 0.0800078, -0.0095412, -0.0566241, 0.0320522, -0.0622628, -0.1076318, -0.1064272, -0.0735314, 0.1031303, -0.0420357, 0.057982, -0.0659972, -0.0221625, 0.1104375, 0.0335072, -0.0040633, -0.0480103, -0.0375765, -0.0138109, -0.0044922, 0.0612759, -0.0359971], [-0.0122297, -0.0421762, 0.094913, 0.0383339, 0.1168411, 0.083884, -0.0920973, -0.1035953, 0.0574008, -0.0636835, 0.0008274, -0.1078301, -0.0009144, -0.0806375, 0.0200033, 0.113322, -0.0762498, 0.058472, 0.0891018, 0.043185, 0.0059341, 0.0003049, -0.0408602, -0.0422754, 0.0597544, -0.0514589, 0.1199991, 0.0751408, -0.0445592, 0.0858237, 0.0001408, 0.0034078, -0.0302032, 0.0818145, 0.0058959, -0.0305461, 0.0049894, -0.0549684, 0.0456511, -0.0151243, -0.0043353, -0.0204967, -0.025155, -0.0449095, -0.0757953, 0.0015531, -0.0061406, -0.1162034, 0.047959, 4.5e-05, 0.02082, -0.0079825, 0.0038698, 0.039605, 0.0002401, -0.0499284, 0.0544649, -0.0064014, -0.0431291, 0.0059614, 0.0567412, 0.0136518, -0.1010084, -0.0227683, -0.0076126, 0.0674605, -0.0880353, -0.0072271, -0.0253334, 0.0901954, -0.0728082, 0.0713124, 0.0294672, 0.1096761, 0.087735, -0.067608, -0.0190632, -0.0589256, 0.0390223, -0.0127528, -0.1048129, -0.1222499, -0.0390986, -0.1062629, -0.048767, -0.021243, -0.0128649, -0.1229876, 0.0333566, 0.0202366, 0.0030218, -0.0296824, 0.0702655, 0.1016953, -0.0786245, 0.0494469, -0.0591727, -0.0917102, -0.0162276, -0.0131457, 0.0740978, 0.1176322, -0.0599244, 0.043057, 0.0707164], [0.0292769, 0.0735609, 0.0480005, 0.0980602, 0.0272875, 0.0681835, 0.0489375, -0.0566024, -0.0843621, -0.0077742, -0.0804003, -0.0016256, 0.000598, -0.0749482, 0.0766701, 0.1190546, 0.062219, 0.101721, 0.0182336, 0.0459169, -0.0620464, 0.0003544, -0.1216528, 0.0006847, -0.0627788, -0.0682797, 0.0942693, 0.0630096, 0.0279599, 0.0139356, 0.012698, 0.0783681, -0.001549, 0.0029007, 0.0003725, 0.0104046, -0.0984041, 0.0137869, 0.0365428, 0.0990247, -0.0335297, -0.0432441, 0.0897777, 0.0339964, -0.0226383, -0.034754, -0.0323339, 0.016323, 0.0710956, 0.0409606, -0.0051672, -0.0154815, 0.0114624, 0.0033485, 0.0726509, -0.0894089, 0.0307231, 0.0013765, -0.0001222, -0.0071657, -0.1206679, -0.0848758, -0.0335919, -0.1056828, -0.0463988, -0.0531428, -0.0185794, 0.0591778, -0.0344886, 0.0309412, -0.1095398, 0.0388089, -0.1030729, 0.0475858, -0.0586597, -0.0895081, -0.0261867, 0.0406316, 0.0659802, 0.0686188, -0.0290013, -0.0439212, 0.0142099, -0.0830417, 0.0381527, 0.0729747, -0.078518, 0.0730525, -0.051629, 0.0305199, -0.0472056, -0.0256431, 0.0059676, 0.0419597, -0.0114954, -0.0164768, 0.1055803, -0.066637, 0.0180174, 0.024797, -0.1170423, 0.0672123, -0.0882418, 0.019632, -0.072074], [-0.0369012, -0.0550395, -0.0061697, 0.1119559, 0.0873096, -0.0353641, 0.0446784, -0.0081519, -0.0223532, -0.0540452, 0.065251, -0.1001408, 0.0247616, 0.0450853, 0.0401824, 0.0548214, -0.0650865, 0.0623233, 0.0273672, -0.0283245, 0.0435079, 0.0385294, 0.0306703, -0.018043, 0.084228, 0.0388904, -0.0294464, -0.067593, 0.0172212, 0.098275, 0.0003874, -0.0612691, 0.037657, -0.1027792, -8.38e-05, -0.0012724, -0.0166809, -0.0946164, 0.0332678, 0.1042588, -0.0959935, 0.0587665, -0.0010816, 0.1211483, -0.0902991, -0.012964, -0.038766, -0.095395, -0.0666129, -0.0077371, -0.0003849, -0.0011903, -0.0003831, 0.0043987, 0.0450829, -0.1186222, -0.0820312, 0.0413858, 0.0153209, -0.0391399, 0.0532651, -0.1230519, 0.0491219, 0.041521, -0.0035056, -0.0998746, -0.0812241, 0.0794197, -0.067763, -0.066089, -0.0803803, 0.0064722, 0.0657234, -0.062191, 0.0890618, 0.0596864, -0.0580977, -0.0227019, 0.0198858, 0.0797936, 0.0502721, 0.0213533, 0.0062844, -0.0309223, -0.0506382, -0.110989, -0.1166309, -0.0511822, -0.0397094, -0.0294298, -0.0941392, 0.1130696, -0.0889406, 0.052314, -0.1124601, 0.0085782, -0.0415707, 0.0590908, -0.0602724, -0.0558197, 0.0964673, 0.0161833, 0.0759308, -0.0738043, -0.0935907], [0.1078378, 0.0152846, 0.0731924, 0.0369911, -0.0195563, 0.017142, -0.014896, 0.0144199, 0.119453, -0.0417086, 0.0365462, -0.051164, 0.0097949, 0.1253345, 0.0307829, -0.0070628, -0.0310245, -0.050345, -0.1172138, -0.0079611, 0.0341357, -0.0001914, 0.0111572, 0.003847, -0.0818438, 0.1125885, -0.0194886, -0.0095, 0.0545793, -0.0049994, -0.0004152, 0.1088442, -0.0429469, 0.1223966, -0.0281932, 0.0002797, 0.0011152, 0.0175816, 0.0217375, 0.0473857, -0.0719513, 0.0316105, 0.0347921, -0.0236438, 0.0461889, -0.0005521, 0.038881, -0.0670004, -0.0521856, 0.0154019, 0.0094818, -0.0013779, 0.0002355, -0.0025262, 0.0620774, 0.0953941, 0.0251757, -0.0073669, -0.0007086, -4.26e-05, 0.0525038, 0.0923548, 0.1226172, 0.0545147, 0.0907231, -0.0219083, 0.0932246, 0.0565668, 0.1147617, -0.0235541, 0.0551187, -0.0399375, 0.0327561, 0.0476028, 0.039461, 0.1154522, -0.0828124, -0.0807985, -0.0602604, -0.060177, 0.0992721, 0.1158748, 0.0675959, 0.0060204, 0.0427324, 0.0625474, -0.0640302, 0.0180281, 0.0655805, -0.0355072, -0.0632033, -0.0254767, 0.0918869, -0.0584643, -0.0588814, 0.0593956, -0.0099869, 0.0559357, 0.0008657, 0.0533333, -0.0480727, -0.1258074, 0.012086, 0.0178658, -0.0555257], [0.0663665, -0.0372611, -0.1213849, 0.0294302, 0.0004146, -0.0058436, -0.1053425, 0.0270253, -0.0861918, -0.0366509, 0.0424188, 0.0469418, 0.035742, -0.0811943, 0.0590826, -0.0252346, -0.1088706, 0.019184, 0.0463528, 0.0888731, -0.0506532, 4.63e-05, -0.0073509, -0.0087972, 0.1097846, -0.0966371, -0.0664596, -0.0302874, -0.0063021, -0.066152, 0.041207, 0.0475161, -0.0018853, -0.072174, -0.0002087, 0.031905, -0.0415555, 0.0277256, -0.0626097, -0.027942, 0.0980734, 0.0577404, 0.0011623, -0.0416481, -0.0155492, 0.036823, -0.0546559, -0.0494825, 0.0663861, 9.05e-05, 0.0347566, 0.0003203, -5.1e-06, 0.0472032, 0.1113037, -0.0725254, 0.0600555, -0.0110751, 0.0205051, 0.0367953, 0.0481803, 0.0105035, 0.0659046, -0.0215062, -0.0535889, -0.0005705, -0.0467822, 0.0381583, -0.0346674, -0.0665429, 0.0339459, 0.0992534, -0.0929825, 0.1050957, -0.0302624, -0.0637261, 0.0592679, 0.0363852, -0.0040635, 0.0697206, -0.0493622, 0.0339281, -0.0263408, 0.04903, -0.0845659, -0.0461854, 0.0413798, -0.0395793, -0.0343238, -0.059015, 0.0858565, 0.0181877, -0.0263142, 0.102715, -0.0470262, 0.0642286, 0.035715, 0.042177, 0.0430464, 0.0706428, 0.0183561, 0.0911681, -0.0382583, -0.049182, 0.0185266], [-0.032595, -0.1278633, -0.0268385, -0.1166834, -0.0946291, -0.0488973, 0.0332572, -0.0134596, -0.0009464, 0.0834704, 0.0174899, 0.0616963, -0.0174695, -0.0673945, -0.0929781, -0.0219716, 0.0689176, 0.0023793, -0.0403512, 0.0497336, -0.1062123, -0.0142753, -0.0220248, 0.0043635, -0.0709186, 0.0356759, -0.1242767, 0.004566, 0.1099096, -0.0489918, -0.0314407, 0.0643668, -0.0163669, 0.048928, 2.56e-05, 0.0361714, -0.020701, 0.0113375, 0.015506, -0.0092667, -0.0201644, 0.0459644, 0.0454846, -0.0116189, -0.0119338, 8.4e-05, 0.0285673, 0.0770259, -0.0722177, -0.0006684, 6.36e-05, 4.99e-05, 0.0180711, -0.0144919, 0.035607, 0.0641472, 0.0507588, 8.99e-05, 0.0005508, 0.0162516, 0.038567, 0.1181954, -0.0633893, -0.0182726, -0.061643, 0.0500293, -0.0427254, 0.0699546, -0.0723412, -0.0214424, -0.0540221, -0.1045822, -0.0262382, -0.0582012, -0.0919138, -0.0006738, -0.0620759, -0.0244777, -0.103707, 0.01978, -0.039039, 0.0917406, -0.064027, -0.0065056, 0.042145, -0.031559, 0.1186594, -0.0165911, -0.0083103, 0.0306375, -0.0567992, -0.1070266, 0.056528, -0.0095976, 0.0721051, -0.0973994, -0.0972495, -0.0399786, -0.0754388, 0.0496723, -0.0608908, -0.1079777, 0.0027423, -0.0398338, 0.0514112], [0.0699175, -0.0683201, -0.0007465, 0.0154644, -0.0079583, 0.0660236, 0.0209142, -0.0248609, -0.0644643, -0.0237419, -0.0546151, 0.0336399, 0.0010735, 0.0452416, 0.1037832, -0.011871, 0.0003684, 0.0443362, -0.0754713, -0.0471901, 0.0787456, 0.0002065, 0.0723792, 0.0098562, 0.0806868, -0.0443778, -0.0403775, -0.0446877, -0.0608761, -0.0087519, -0.0230484, 0.0629874, -0.0268964, -0.0522523, -0.0262963, 0.0003008, 0.0869298, -0.0164252, -0.0706946, -0.0330009, -0.0176766, -0.0957376, 0.0509003, 0.0885524, -0.0395229, 0.0166816, 0.0414584, -0.0777283, 0.0765196, -0.0196899, 0.001545, -0.0127799, 0.0064894, 0.0775544, 0.0155284, -0.0898714, -0.0489742, -0.0155153, -1.09e-05, 0.0015316, -0.0220526, 0.0451843, 0.0124408, -0.0639634, 0.0647367, 0.0295724, 0.0650856, 0.0469095, 0.0543876, 0.0210413, -0.0674058, -0.0075545, 0.0799663, 0.100144, 0.0209633, 0.0273774, -0.0501509, 0.0452138, 0.1117041, -0.0757881, 0.0368066, 0.0769267, 0.0308231, -0.0702333, -0.0526351, 0.0412163, -0.0804401, 0.0265825, 0.0639983, -0.0378428, 0.0178484, -0.0210689, 0.0817144, 0.0591003, 0.0767018, -0.0092415, 0.0580986, 0.0304241, -0.0545295, 0.0252419, 0.0178275, 0.0777204, -0.0356724, 0.1097876, 0.0171862], [0.0787044, 0.0534965, 0.079043, -0.0677651, -0.0014102, -0.0531049, -0.0409639, 0.0703502, 0.0205498, 0.0575002, -0.0964338, -0.0154791, -0.0113691, -0.0821433, -0.0320148, 0.0007631, -0.1122443, -0.0827327, 0.1168993, -0.0334308, -0.0830716, -0.0125948, 0.0100021, 5.88e-05, 0.0390116, -0.0667613, 0.0112747, -0.00497, 0.0658193, 0.0691925, 0.0001651, -0.1112435, 0.0003442, -0.0071929, 0.0121883, -0.0009969, 0.0203627, 0.0089135, -0.090647, -0.0167524, 0.0598731, -0.0226898, 0.0200176, 0.0227512, 0.0468004, -0.000362, 0.0670066, -0.0920334, 0.0351728, 0.0289996, -0.0001046, 0.0004811, 0.0037815, -0.0232986, 0.0332867, -0.1079952, -0.015995, -0.0004544, -0.0005793, 0.0125517, -0.0837892, -0.0337863, 0.0570468, -0.0785251, 0.0056151, -0.0127922, -0.1004205, -0.0348036, 0.0492996, 0.0724606, 0.1135688, 0.0470307, -0.1011348, 0.0659312, 0.0738732, -0.0252979, -0.0676588, 0.0815987, -0.0449841, 0.0775632, 0.0594312, 0.0187422, -0.0504099, 0.0188482, 0.0241794, 0.0175057, -0.0323306, 0.0396766, 0.0870013, 0.0253285, 0.0941388, -0.069911, 0.0307542, 0.0417727, -0.0598627, -0.0075238, 0.0887449, -0.0146897, -0.1110803, 0.101669, -0.0279675, -0.076899, -0.1068565, 0.041426, 0.0705923], [0.0882926, -0.1255032, 0.0419548, 0.0034147, -0.0823519, -0.0190951, -0.0610741, 0.0102537, 0.0762973, 0.1007299, -0.0219698, 0.1160595, -0.0372471, 0.0520566, 0.0133106, -0.0375421, -0.0127915, 0.0133066, 0.0714079, -0.0991278, -0.093703, 0.0291091, -0.0617834, -0.0012156, 0.1013788, -0.0494027, -0.0759055, -0.0127147, -0.0316496, 0.0373098, 0.0131005, 0.0558661, 0.0075245, 0.0746261, 0.0009322, -0.0283655, 0.0710881, -0.0162531, 0.0437515, -0.0662492, 0.0163582, 0.0520139, -0.0746138, -0.0918671, 0.0756501, 0.0345597, 0.0591041, 0.1061965, 0.0234746, -0.0014011, 0.0107967, -0.0177048, 0.00117, -0.1105753, -0.0651192, -0.0999155, 0.0614532, -0.0161505, -0.0006408, -0.0001089, 0.11318, -0.0282334, 0.1090883, 0.0716838, -0.0541731, 0.0334059, 0.0824961, 0.0354278, 0.1110313, -0.0937962, 0.0521468, -0.0528315, 0.003288, -0.0698658, 0.0001146, 0.09589, -0.0045441, 0.0691418, -0.076187, 0.0603283, -0.0233991, 0.0525812, -0.0362566, 0.0570834, 0.0461623, -0.0835745, 0.0881876, 0.0749987, 0.1124356, 0.0682274, 0.0161284, -0.095028, 0.0524547, 0.0200951, -0.0146015, 0.0727492, 0.0958575, -0.0667253, -0.0439812, 0.0521694, 0.0768389, -0.0122372, -0.0322184, 0.0179666, -0.0639653], [-0.0190261, -0.0458171, -0.0675053, 0.0413469, -0.0059424, 0.0249244, 0.1053847, 0.0898414, 0.0798107, -0.0249502, 0.1061827, -0.0674638, -0.003785, -0.0552919, 0.0050029, 0.081657, 0.0512039, 0.0728895, 0.0571387, 0.0585546, 0.0023802, -0.0351097, 0.0393284, 0.0005785, 0.0704954, -0.0528354, -0.0144433, -0.0544225, 0.0762759, 0.0788609, -0.0005101, 0.0950464, 0.0378629, 0.033616, -9.8e-06, 0.0014018, 0.006249, -0.0234561, 0.004081, 0.0815128, -0.0274696, 0.0337779, 0.0757008, 0.0174496, 0.014861, -0.0334772, 0.0729322, 0.0212091, -0.0059669, -0.0102515, -0.0002394, -4.18e-05, -0.0001712, -0.0326536, 0.0740363, -0.0064749, -0.0785546, -0.0014557, -0.0351073, 0.0437191, 0.0688117, -0.0459991, 0.0893638, -0.0787971, -0.0556506, -0.0703897, -0.0706982, -0.0803321, -0.0234067, 0.0778934, -0.0608051, -0.0575146, 0.0161227, 0.0539726, -0.0065983, -0.092591, 0.0356737, -0.0826734, 0.1128249, 0.0301244, -0.0653626, 0.0469802, -0.0499211, -0.0217619, -0.0721376, -0.0678514, -0.0065309, 0.0804018, 0.0109086, 0.0264388, 0.0234459, 0.1124816, -0.0213164, 0.0659836, -0.0476093, 0.0768446, -0.0871231, -0.056331, -0.0866901, 0.0336534, 0.0548554, 0.0456822, -0.077925, 0.0367082, -0.0782303], [-0.0899721, 0.0289946, -0.0066021, 0.1145335, -0.0524777, 0.1151309, -0.1142194, -0.0943235, -0.0838554, -0.0773155, -0.0649758, -0.0554461, -0.0117207, -0.0390479, -0.0044831, -0.0394942, 0.0495322, 0.072274, 0.0425528, -0.0590007, -0.0772038, -0.0005153, -0.030368, -0.0055299, 0.0649385, 0.1064422, -0.0663422, -0.106155, -0.1005103, 0.104367, 0.0003084, -0.0220588, -4.73e-05, 0.0037113, 0.006008, -0.022968, -0.0119062, -0.1027248, 0.0502054, -0.0419464, 0.0903394, -0.1188858, 0.0765634, 0.0576179, -0.0906213, 0.00142, -0.0556449, 0.0424992, -0.0411773, -0.0087125, -0.0002204, 0.0100958, -0.001536, -0.0603311, -0.0563184, 0.0161071, 0.025465, -0.0002915, -0.0170796, -0.0001625, -0.0264863, -0.0067007, -0.0056243, -0.0084799, -0.1058318, 0.0349566, 0.1066994, 0.0500111, 0.030637, -0.0222855, 0.0278887, -0.1038879, -0.0645256, -0.0373023, 0.0566232, -0.0675756, 0.0545424, -0.0824984, -0.0892666, -0.0317814, 0.0883035, -0.1133311, -0.0471109, -0.047575, 0.1007088, -0.0113924, -0.0902276, 0.1251495, 0.0082694, -0.0720438, -0.0123382, 0.0437357, -0.0512155, -0.0069196, -0.0093681, -0.039767, -0.0991558, 0.051918, -0.014962, -0.0323592, 0.0130813, 0.0061568, -0.0522637, -0.01697, 0.0228886], [-0.0030632, 0.0964012, -0.1142531, -0.0638692, -0.0266262, 0.0001337, -0.0439858, -0.0531077, -0.0280803, 0.0553943, -0.1225423, -0.1051629, 0.0014984, -0.0297879, 0.0555732, 0.0062837, 0.0144477, 0.1092356, 0.113772, -0.0177002, 0.0092106, 0.0002386, 0.060021, 0.0405578, 0.1190971, -0.0096039, 0.0780981, -0.0198502, -0.1138584, -0.0004276, -5.15e-05, -0.0281372, 7.77e-05, -0.0735988, -0.0119108, 0.0277374, -0.01267, -0.1205359, -0.044268, 0.0576961, 0.0320072, 0.0637632, -0.1000167, -0.0099516, -0.0302482, 0.0013545, 0.03934, -0.1191947, 0.0373247, -0.0036346, 0.0206534, 0.0191988, -1.99e-05, -0.0302753, 0.0788654, 0.0379278, -0.0363619, -0.0033941, 0.0034109, 2.01e-05, 0.0485333, 0.0189946, 0.0026218, -0.0438971, 0.0588259, 0.0261225, -0.0507961, -0.0041569, 0.0356367, 0.035553, 0.1005744, 0.0015678, 0.0378291, -0.1062513, -0.016083, 0.0843566, 0.0919063, 0.0398966, -0.0337271, -0.003435, 0.0511192, 0.0362298, -0.0578457, -0.1132511, 0.0824797, 0.0084954, -0.0169733, 0.0020691, -0.0248906, -0.0425441, -0.025895, 0.0315955, -0.0174357, -0.009912, -0.0273819, 0.090902, -0.0578738, -0.0710037, -0.0218462, -0.0944086, 0.0468664, 0.1054649, -0.0763981, -0.0624832, 0.0317439], [0.0354898, -0.0592563, 0.1228929, 0.0449298, -0.0502829, -0.0064862, 0.1250523, 0.0205994, 0.0868349, 0.0973973, 0.1031721, -0.0601044, 0.0221949, 0.0840554, -0.0645984, -0.0158556, 0.0446821, -0.1094616, 0.0257106, -0.0085878, 0.0242397, -0.0412955, 0.0503629, 0.0180449, 0.0614175, -0.075092, -0.014926, 0.0119247, 0.0838024, 0.0445565, -0.0002219, -0.0138124, -0.0026004, 0.1159633, 0.0015514, 0.010324, -0.0191189, -0.0673536, -0.0611685, 0.0192259, -0.1131861, -0.0444245, 0.0127714, -0.0876074, 0.032724, 0.000267, -0.0234865, 0.0341674, -0.0315664, 0.0007873, 0.0081593, -2.5e-06, 0.0219956, 0.0903337, 0.0258642, 0.0720744, -0.0135359, -0.0210628, -0.0136519, -5.98e-05, 0.0572271, 0.0533237, -0.0624118, 0.0207276, 0.1084816, 0.076589, 0.0997401, -0.0087699, 0.1080592, -0.0709531, 0.0474261, -0.0836981, 0.0325702, -0.0071301, 0.0445496, 0.0486936, 0.0051992, -0.0151765, -0.0539697, -0.1138917, -0.0504936, 0.0204543, 0.0434974, 0.0670718, 0.0212487, 0.0179211, 0.115399, 0.0532917, -0.0135291, -0.0592042, 0.0277592, -0.05831, -0.0361536, 0.0324312, 0.1007165, -0.0253414, -0.007998, -0.0167268, 0.0704924, -0.0419123, -0.0747596, 0.0390507, 0.1016542, 0.1075612, 0.0217356], [0.0681345, -0.0335892, 0.0063905, 0.0681231, 0.0525642, 0.0774173, 0.100434, 0.1008768, -0.015053, 0.0689863, 0.042544, -0.0911938, -0.0005319, 0.0625201, -0.0943539, 0.0995158, -0.0504765, 0.0697212, -0.0254941, 0.0579901, -0.0143907, -0.0015363, 0.0099225, -0.0053496, -0.0900754, -0.0732116, 0.0757636, -0.0642186, -0.1048875, -0.1235948, -0.0400441, 0.0233628, -0.0001589, -0.0229125, -0.0385511, -0.0077063, 0.070384, -0.047239, 0.0547973, -0.0065667, 0.0871039, -0.0264218, 0.0808477, -0.0154448, -0.0008141, 0.0003255, 0.0960599, 0.070088, 0.0703514, 0.015696, -0.0413448, 0.0285072, -0.0028024, 0.0801568, -0.0071443, 0.0367207, 0.0984209, 0.0006944, 0.000976, 0.0004682, 0.0066987, 0.0915835, 0.0782547, -0.0851965, -0.04261, -0.0499109, 0.0831859, -0.069821, -0.0099668, 0.0772978, 0.0464103, 0.0617537, -0.087228, 0.0577344, -0.0334727, 0.0521062, -0.0847049, 0.0039849, 0.0945687, -0.1052802, 0.0083606, 0.009348, 0.0157984, -0.1000657, -0.1188004, -0.1038243, -0.0302768, 0.0743331, 0.0876759, -0.1035022, 0.1209673, -0.0040406, -0.0282969, -0.113042, 0.0097587, -0.0791132, 0.0640822, 0.0105977, 0.0602155, -0.0500685, -0.0228739, 0.0489734, 0.0215505, -0.1093335, -0.0169359], [0.0251379, -0.0218902, 0.0245882, -0.0311961, 0.0355769, 0.0076999, -0.004506, -0.0970393, 0.0088679, 0.0500752, 0.0029136, -0.0004223, 0.0014627, 0.0476129, -0.069518, 0.0531321, 0.0451388, 0.0954134, 0.057932, -0.0592304, -0.0123986, 0.0006642, 0.0822418, 0.0015209, 0.0587923, -0.0899577, 0.0213079, 0.0772175, 0.0084391, 0.079384, 0.0415203, -0.0541516, -0.0002737, -0.0815616, 0.0002149, -0.0003735, 0.0903774, 0.0486443, 0.0575555, -0.0359271, -0.0416934, 0.0033787, 0.0370368, 0.0270263, -0.0936403, 0.0076462, 0.0627012, -0.0556604, -0.0707407, 0.0131889, -0.0003768, 0.0016239, 0.0012158, 0.0744724, 0.0749121, -0.0110343, 0.0916543, 0.0002725, 0.0002401, -0.0004968, -0.0257224, -0.0199176, 0.0155501, 0.0871089, -0.0516762, -0.0828375, 0.0462362, 0.0586369, 0.0477824, 0.0789897, 0.0017569, -0.0675237, -0.004855, -0.0092493, 0.0231041, 0.0759122, 0.0549436, -0.0139163, 0.0178861, -0.0447529, 0.0088557, -0.0475272, -0.0629104, 0.0897203, -0.0126219, -0.0350219, -0.0493589, -0.0572157, -0.0562113, -0.0768918, -0.0478053, 0.0195214, 0.0374663, 0.0513684, -0.1121526, -0.0090861, 0.0545706, -0.02304, 0.0249061, 0.0321724, -0.011194, 0.0471193, 0.0740535, 0.0352855, -0.0659186], [0.0880192, 0.0733999, 0.0635969, 0.066688, -0.0313549, 0.061004, 0.0933938, 0.1201642, 0.1168877, -0.0231487, 0.0057137, 0.0877397, -0.0038025, -0.02764, -0.0096908, -0.0956971, -0.057716, -0.0716378, 0.0214725, -0.0916721, -0.0812886, 0.007682, -0.0447447, -0.0001336, 0.0742037, 0.091248, -0.064095, 0.0361126, 0.0188608, 0.0312155, 0.0325719, -0.0393739, 0.0006245, 0.0819308, -0.0002359, -0.0014626, 0.0353658, 0.0903614, -0.0782882, -0.1054037, -0.1130633, -0.0795853, -0.0631239, 0.0678744, 0.0121064, -0.0415649, 0.046559, 0.0971282, -0.0632365, 0.0157482, 0.0013128, 0.016546, -0.0300006, -0.0435103, 0.0336721, -0.0246101, 0.0166242, 0.0261963, 0.0316631, 0.0014526, -0.035356, -0.023352, 0.0833474, 0.0080077, 0.0682478, -0.0517972, 0.0543786, -0.0477237, 0.0351826, -0.0712878, 0.0229489, -0.0345963, -0.0044506, 0.00246, -0.1169696, -0.0638705, -0.0320027, 0.1106466, 0.0034283, 0.0899572, 0.0469501, -0.0679948, -0.0091283, 0.0152306, -0.0195402, -0.0216564, 0.0494711, 0.0758668, 0.0250856, -0.0725274, 0.0410429, -0.0933232, 0.0413111, -0.0759559, -0.0387542, -0.0044694, 0.0505053, -0.0181083, -0.0509979, 0.0475244, -0.0531393, -0.1245772, 0.1114525, 0.1017817, -0.0384785], [0.0637996, 0.1071136, -0.1011396, 0.0244942, 0.1233905, 0.1115739, -0.0676302, 0.0086469, 0.0057576, -0.0618279, -0.1049504, -0.0785766, 0.0107872, 0.0123357, -0.0271629, -0.059689, 0.0586471, -0.0610304, 0.0985647, 0.0497396, 0.0831358, 0.0267989, 0.0164958, 0.0001575, 0.0847896, 0.0543241, -0.0501749, -0.0834607, 0.0767804, -0.0470616, 0.0324411, 0.0577215, 0.0345179, 0.044546, -0.0013941, 0.0248377, -0.0450719, -0.0241068, 0.0514518, 0.1113426, -0.1076776, 0.0682403, -0.0270505, 0.0593841, -0.0329043, -0.0002035, 0.0042427, -0.0279443, 0.0114095, 0.0001539, -0.0342719, 0.0283093, -0.0006659, 0.0355197, 0.0678793, -0.0646022, -0.0601786, -0.0215987, -0.0135384, -0.0320543, 0.0284936, -0.0297759, -0.0403085, -0.0283318, -0.0207792, 0.0098267, -0.0407883, 0.0430372, 0.0128851, 0.0513067, -0.0595476, 0.05359, -0.0851235, 0.068861, -0.0497501, 0.0333145, -0.0257465, -0.0794666, -0.0956371, 0.0208018, 0.0194219, 0.0382477, -0.0054684, 0.0688602, 0.0200273, -0.0351627, 0.0715071, -0.0974094, -0.022741, 0.0232599, 0.0279772, 0.0076778, -0.0860895, -0.0056808, 0.0102646, 0.0718554, 0.0502885, -0.0234798, -0.0003827, -0.0153925, -0.0113241, -0.0174365, -0.0940344, -0.005532, 0.0503378], [-0.0481609, -0.1129324, -0.0058899, -0.0622522, -0.0876093, 0.0067469, -0.0772158, -0.0456011, -0.0936131, 0.0972279, 0.0319383, 0.0927586, -0.0190407, 0.0100507, 0.0612428, 0.1116921, 0.1096261, 0.0575904, -0.1094938, -0.0392026, 0.0072487, 0.0398908, -0.0659643, 0.0001703, -0.0863105, 0.0659265, 0.0535589, -0.1088918, 0.0304211, -0.0233743, 0.0063018, 0.0112521, -0.0304837, -0.0076065, 0.0343838, 0.0179216, -0.0503557, 0.004651, 0.1086853, 0.0337466, -0.1133967, 0.0019582, 0.1031165, -0.0249688, 0.018734, 0.0011568, -0.0490635, 0.0020475, -0.0059057, -0.0242571, 0.001325, 0.0087214, 0.0006829, -0.0242898, 0.0774944, -0.0767566, 0.0881047, -0.0011365, -0.0005179, -0.0003189, 0.0152346, 0.0134739, 0.0575229, 0.0100312, 0.0449893, -0.1085456, -0.0277561, -0.0347458, -0.0861287, -0.0055895, -0.0071593, -0.0136789, 0.0244553, -0.0870815, -0.1178399, 0.0915979, -0.0109328, 0.0247808, 0.0698997, -0.10583, -0.0906346, -0.035639, -0.0369363, -0.1133599, -0.0569276, 0.0169592, -0.0560122, 0.0164775, 0.0017137, -0.0118731, -0.0169259, 0.0701387, -0.0499901, -0.0739567, 0.0542883, -0.0204823, -0.0461373, 0.0231227, 0.0375989, 0.0730516, -0.0787157, -0.0772118, 0.1018489, -0.087492, 0.0464898], [-0.101772, 0.0582847, 0.0728771, 0.0814383, -0.0031061, 0.1081232, -0.0085407, -0.0046176, -0.0033472, 0.0462556, 0.0101281, 0.0571349, 0.0076096, 0.0266489, -0.0516432, -0.0138963, -0.058162, -0.0650662, -0.023602, -0.1000874, 0.0722415, -0.0016976, -0.0017577, -0.0002886, -0.0648496, -0.068303, -0.1102591, -0.0661677, -0.0005432, -0.0215921, 0.0006756, -0.0409954, 0.000666, -0.0238036, -0.0158267, 0.0009899, -0.1104805, 0.0469931, -0.0922827, -0.0623119, 0.0360687, -0.0354197, 0.1086718, -0.0206359, -0.1185085, -0.0062062, -0.0970397, -0.0183011, -0.0103068, 0.0074006, 0.000659, 0.012329, -5.97e-05, -0.1021249, 0.0673495, 0.0068778, -0.022568, 0.0405577, 0.0190857, -0.0075734, 0.0645671, 0.0276268, 0.0834777, -0.0862445, -0.0731776, 0.0473332, -0.077094, 0.0056841, -0.0319554, 0.0600827, -0.0040679, 0.024749, 0.1024897, -0.0408746, 0.0409177, 0.036436, -0.0520147, -0.0427402, 0.0558808, 0.0821139, 0.0396866, 0.06867, -0.0772725, -0.0196568, 0.0917286, 0.0266528, -0.027342, -0.0567624, -0.0220893, -0.0738877, -0.0457839, 0.0452593, -0.0546346, -0.0233749, -0.0813598, -0.0605805, -0.0689725, 0.0294867, -0.0453934, -0.0805332, 0.0505483, -0.0866119, 0.0987189, -0.0482903, -0.0116812], [0.0376067, 0.0465003, 0.0070934, 0.0167884, -0.0575878, 0.0960452, 0.0150946, -0.1112944, 0.0534134, -0.0252781, -0.0112661, 0.0450757, -0.0052597, 0.0642082, -0.0563162, 0.0326908, -0.028841, -0.0525425, -0.0035441, 0.0204791, -0.0575689, -0.0006067, 0.0447799, 0.0005515, -0.0430142, -0.0869057, 0.033033, 0.0728132, -0.0768501, 0.0300938, 0.0006768, -0.0702592, -0.0090448, -0.0394114, 0.0002313, 0.03035, -0.0426187, 0.0568649, -0.0498087, -0.0275831, -0.0943112, -0.0601387, 0.0659917, -0.0294899, -0.0473065, 0.0227461, -0.0096444, -0.0740353, 0.0592422, 0.0034151, 0.0157995, 0.0099045, -0.0091392, -0.0359501, 0.0021124, -0.0013461, -0.0173359, 0.0014954, -0.0033524, -0.008576, -0.0155398, -0.062887, -0.0722098, -0.0379347, 0.00773, 0.065405, 0.0375308, 0.0717011, 0.082666, 0.0855911, -0.0074892, 0.0172296, 0.0579421, -0.0358871, 0.0164437, 0.0168305, -0.0169069, -0.0877691, -0.0544661, 0.0388072, -0.0514541, -0.0573337, -0.0625157, -0.0088866, 0.0623443, 0.0191047, -0.0123999, -0.1121825, 0.122236, 0.0816349, 0.0657758, -0.0661841, -0.1072261, 0.0107393, -0.0604398, 0.0757313, 0.0721919, -0.0049523, 0.0611365, -0.0394872, 0.0600448, 0.1204295, -0.098181, -0.1039403, -0.0170733], [-0.0152094, 0.1002974, -0.0976644, 0.0855484, 0.1208293, 0.0797181, 0.0273055, 0.0600311, 0.0223456, -0.107897, 0.0648991, -0.0742843, -0.0171299, -0.04718, 0.0130282, 0.0935375, 0.1045148, 0.0546876, -0.0020605, 0.0489917, 0.0195147, 0.0005674, -0.0367909, -0.0186231, 0.1203109, 0.0108171, 0.0889511, -0.0368948, -0.0674916, 0.0508389, 0.0015525, 0.1207679, 0.0290015, 0.0980789, -0.0011038, 0.0004574, -0.1190334, -0.0892816, 0.0374041, 0.0222732, 0.0224666, 0.052721, -0.0128022, 0.0301008, -0.064072, -0.0005053, -0.0088606, -0.1008989, -0.0921883, 2.17e-05, 0.0107234, -0.001581, 0.0379834, 0.0795022, -0.0981029, -0.0088211, -0.0601126, -0.0009457, -0.0012844, 0.0318456, 0.0127573, -0.1017372, -0.027945, 0.0848175, 0.0519274, -0.0503692, -0.0039647, 0.1002812, 0.0230158, 0.0576734, -0.0877126, 0.1055268, 0.0479554, -0.0171077, 0.0836849, -0.0330624, -0.0603776, 0.0813628, -0.0059631, -0.0792121, 0.0793223, 0.0001866, -0.0272352, -0.0211396, 0.0837314, -0.0273391, -0.0386967, 0.0230035, 0.0544426, 0.0378455, 0.0100963, -0.0706354, -0.0205773, -0.0455522, -0.1120912, 0.0701209, 0.0746081, 0.0177546, -0.0488262, -0.0051897, 0.097066, 0.0219445, 0.0413124, 0.0646446, -0.0903404], [0.0254715, -0.0802509, -0.0571289, 0.0660462, 0.0399173, 0.0064746, -0.0115709, -0.056734, 0.0372617, 0.0551155, -0.0664061, -0.0774386, 0.000293, -0.0011784, -0.0660381, -0.0946851, 0.0032834, -0.071794, -0.0104916, 0.0208459, -0.0231231, -0.0214678, -0.0440983, 0.033105, -0.0668446, 0.0420043, -0.0875028, -0.0024033, 0.0135692, -0.0923471, -0.0104694, -0.0699236, 0.0153232, -0.0719155, 0.0394552, -0.0414536, -0.0181235, -0.0537824, -0.1067895, 0.0945456, 0.098011, 0.0212225, -0.0338788, -0.1131819, -0.102938, 0.0004103, -0.0349367, -0.1161221, 0.0493633, 0.0005987, -0.0109531, -0.0001556, -0.0061157, -0.0416785, 0.0989373, 0.1137779, -0.0298207, -0.0070128, -0.0131137, -0.0336193, -0.0364287, 0.0998364, 0.0438498, 0.0058365, 0.0740297, 0.0404425, 0.0687205, 0.023179, 0.0137247, 0.052025, 0.0164526, 0.0341234, 0.0561472, -0.0688573, -0.0899541, 0.0668194, -0.027326, 0.0359669, -0.0155132, -0.058735, 0.0998817, 0.0238589, 0.0951455, 0.0463634, 0.1147429, 0.060773, -0.0433803, 0.1153829, 0.0427155, -0.0953056, -0.0493741, -0.0511016, 0.0794033, 0.0388404, 0.0270965, -0.0422553, 0.0653623, -0.0669537, 0.0179568, -0.0871656, -0.0349417, -0.0706274, 0.1141625, 0.0941668, -0.0420586], [-0.0124225, 0.0056759, -0.1068207, 0.0889084, 0.069524, -0.0648056, -0.0652855, -0.0583349, 0.0533842, 0.023296, -0.1037891, -0.0837014, -0.0001607, -0.0520929, -0.1135742, 0.0512763, -0.1028522, -0.0060969, 0.0820723, -0.0589298, 0.0023053, -0.0002416, 0.0190003, -0.0006736, 0.0710547, -0.0636004, -0.0441152, -0.095341, -0.0488772, -0.0296204, -0.0012337, 0.0009725, -0.0116182, -0.0945988, 0.000428, -0.0371817, -0.0500767, 0.0293982, -0.0475574, -0.0093591, 0.0224227, 0.1220647, -0.1147362, -0.0372316, 0.058194, 0.0006791, 0.0908179, -0.0103687, 0.0088579, -0.0004381, 0.0393014, -0.0322329, 1.63e-05, 0.1212253, -0.0718874, -0.1108306, 0.0330839, 0.0205536, -0.0083685, 0.0013945, 0.098735, -0.0500818, -0.0075119, -0.0532842, -0.0138374, -0.0490003, -0.0769512, 0.1067054, -0.0898835, -0.0264555, 0.0079238, 0.07121, -0.0235588, 0.1002344, 0.0958043, 0.1169212, -0.0328045, 0.0822572, 0.0020462, -0.0570204, -0.0943679, 0.0453757, 0.0024129, 0.017073, -0.1103163, 0.0124779, -0.0830087, 0.006914, 0.0440302, -0.0111211, 0.0604585, -0.0336143, -0.0225163, 0.0052777, 0.0365697, 0.1194794, 0.0512928, 0.0476014, 0.0630677, 0.0885028, 0.1036354, -0.0230239, -0.0048289, 0.0638162, 0.0036963], [-0.0299276, 0.0249055, -0.0775079, 0.0083164, 0.05871, 0.0425457, -0.0274817, 0.011628, 0.0454263, -0.0569495, 0.0601164, -0.0572709, 0.0415799, 0.0215778, 0.0411754, 0.0472362, -0.0927873, 0.1107287, 0.0353797, -0.0272066, 0.0409849, 5.1e-06, -0.0561304, -0.0069938, 0.0839965, -0.0314284, 0.0050853, -0.0673502, -0.1234586, 0.0730741, -0.0325752, -0.0713968, 0.0210381, -0.084911, 0.0274466, 0.0001918, -0.1152433, 0.0404418, 0.0795108, -0.0206083, -0.0481242, 0.106457, 0.043375, 0.052459, 0.0307334, 0.00019, -6.9e-05, 0.0319806, -0.1177475, -0.0006809, -0.0006479, 0.0147188, 0.0006041, 0.1005483, -0.0122833, -0.0470495, -0.0680388, 3.52e-05, 0.0001315, -0.0314648, -0.0187991, 0.0508216, -0.0528161, -0.0413018, -0.1023664, -0.0547269, -0.1191165, -0.0766233, 0.0221629, 0.0437774, 0.0785619, 0.0927109, -0.0237912, 0.0198161, -0.058947, 0.1033289, -0.0272466, 0.0508762, 0.0966731, 0.0925447, 0.0007381, -0.0180922, 0.0163031, -0.0769017, 0.0097176, -0.0164248, -0.0258802, 0.0019803, 0.0426061, 0.0928968, 0.1104608, 0.0774682, 0.0225423, -0.0089621, -0.1187394, 0.0590392, -0.0492999, -0.0732639, -0.1121525, -0.0041998, -0.0773728, 0.0616588, -0.0842563, 0.0486722, 0.0049348], [0.0312153, 0.0180107, -0.0600473, 0.1153455, 0.0783678, -0.0720226, -0.0270265, 0.074897, -0.0288684, -0.105363, 0.0547506, 0.0706646, -0.0040791, -0.0507817, -0.0184096, -0.0341364, 0.0062265, -0.0390407, -0.0104244, -0.0959974, -0.0678084, -0.0380293, 0.09015, 0.001553, 0.0907664, 0.0251959, 0.07318, 0.0755898, -0.0345912, -0.0244606, 0.0326065, -0.0294235, -0.000676, -0.1117641, 0.0130943, 0.0030903, -0.0227418, -0.0581307, 0.0868994, 0.1022644, 0.0013355, -0.0465932, 0.0596708, 0.1125488, -0.0229513, 0.0004478, -0.0105926, 0.0461853, -0.0088038, 0.0205082, 0.0012323, 0.0009084, 0.0014866, -0.0826382, -0.0688388, 0.041677, 0.0735387, 0.0007905, -0.0001919, 0.0043694, 0.0945733, -0.0898997, -0.0392436, 0.0044762, -0.0384513, -0.0691312, -0.0454033, 0.0908588, 0.0785075, -0.0557846, 0.0850209, 0.0192082, 0.0551184, -0.0109089, 0.0694459, 0.0788317, 0.094171, -0.0340297, -0.0995379, 0.0075402, -0.070474, 0.0207193, -0.0407637, -0.0427687, -0.0285156, -0.0647136, -0.0817732, -0.0182926, 0.0800021, -0.0549123, 0.0088631, -0.0222484, -0.0721166, -0.0242216, 0.042327, 0.0347833, 0.0213577, 0.0115681, -0.1092522, -0.1115091, -0.0889056, -0.0811812, 0.0318708, -0.1041441, 0.002922], [0.0245053, -0.0582465, 0.0526944, -0.1118686, -0.1018948, 0.0720337, 0.0390779, 0.0985719, -0.022832, -0.0204904, 0.0080426, 0.0810397, -0.000188, 0.0452163, -0.0039892, -0.0698706, 0.0766407, -0.0453024, -0.0602084, -0.0463865, 0.022615, 0.0119682, 0.0671989, -0.0396541, -0.1163467, -0.0890252, 0.0225807, -0.1009178, 0.0824936, 0.0089196, 0.0141099, -0.0300949, -0.0013409, -0.1212488, -0.0010455, -8.31e-05, -0.026192, 0.06218, 0.0202698, 0.0350425, 0.0960494, -0.0578187, 0.0028452, -0.0946877, 0.0785381, 0.0024645, -0.0794229, -0.1230892, -0.1070217, -0.0401711, 0.0013168, -0.0004377, -0.0144699, -0.0718891, 0.048612, -0.0331958, 0.0137005, 0.0287672, -0.0296394, -0.00648, -0.0892259, 0.0801877, 0.0304065, -0.0840608, -0.0711828, 0.0237563, -0.0249123, 0.0774528, 0.0680567, 0.0601296, -0.0489689, -0.0947689, -0.0844495, 0.0343473, 0.0735432, 0.0816167, 0.0066984, -0.0152943, 0.0163924, 0.0447115, -0.1042507, 0.0897921, -0.0585992, 0.0604148, -0.0397073, 0.0502484, -0.024588, -0.0916067, -0.0838609, 0.0813261, -0.0678727, 0.0808074, -0.0306794, 0.0419344, 0.0232423, 0.0248678, 0.0121749, 0.0566051, -0.0229477, 0.0348673, 0.1095707, -0.058646, -0.0070611, 0.0063078, 0.0740875], [0.114805, 0.0368482, -0.0540837, -0.126776, 0.0023604, -0.0452612, -0.0097297, 0.0975555, 0.0825075, 0.0653147, 0.0799864, 0.0935752, -0.018392, 0.0093247, 0.0241911, 0.0233267, -0.0611594, 0.0090063, 0.0350211, -0.0970923, -0.1202162, -0.033239, -0.0592475, -0.0239996, -0.0141111, 0.0712673, -0.0152106, -0.0237326, -0.0715451, -0.1264446, -0.0011431, -0.0269067, 0.012581, 0.0851855, -0.0429298, 0.0025083, -0.0196246, 0.059706, 0.0177945, -0.0664298, -0.0336117, -0.054798, -0.0110207, -0.0076626, 0.038666, -0.0027724, -0.0597141, 0.081354, 0.0428476, 0.0108705, -0.0001478, -0.0008614, 0.0405648, 0.0030723, -0.0056064, -0.0254745, -0.0032743, -0.0337723, -8.54e-05, 0.0006879, -0.0594212, -0.0153113, -0.0205425, 0.1167702, 0.1088518, 0.0803292, 0.0785881, 0.0865705, -0.0127886, -0.0922799, -0.11169, -0.0787644, -0.0348399, -0.1151686, -0.0752899, 0.0183093, -0.0350605, -0.0621622, -0.0646572, 0.0535938, -0.004565, -0.0144237, 0.0770234, 0.0897137, -0.0574964, 0.0211793, -0.0227726, -0.0072549, -0.0229051, -0.0184627, -0.0250855, -0.0055498, 0.0210369, -0.0067485, 0.0723462, -0.0187334, 0.0101731, -0.0148448, -0.0364807, 0.1056314, 0.0362872, -0.0941263, -0.0424688, 0.0225059, 0.1045791], [0.0508071, 0.0495597, 0.0560497, 0.0919092, 0.1210383, 0.0789296, -0.1069389, -0.0046085, -0.0174292, 0.0566716, 0.0632929, -0.0759076, 0.0001294, -0.1128095, -0.0261328, -0.0262966, -0.0923094, 0.0040404, 0.0206686, 0.0238923, -0.0595528, -0.0409099, -0.0338256, -0.0072303, 0.02, -0.0777833, 0.0720287, 0.0009553, -0.1050206, 0.0677467, -0.0002606, -0.0668059, 0.0243368, -0.0359718, 0.010785, 0.0366816, -0.0412899, -0.1163793, 0.0585754, -0.0327047, 0.0979486, 0.0990021, 0.0260824, 0.0953723, 0.0648207, 0.0131291, -0.1068607, -0.0760543, -0.0420275, 0.0001238, -0.0364942, 0.0422346, -0.0011428, 0.1016853, 0.0618522, -0.0385346, -0.0563235, 0.0003481, 0.0001122, 0.018865, -0.0139803, -0.026097, -0.1047726, 0.0587842, -0.0952074, -0.1171813, -0.1049468, 0.0176055, 0.0186478, -0.0609653, 0.0026426, 0.1191154, -0.0306318, -0.0365961, 0.0367084, -0.0881051, 0.0239278, 0.0512344, -0.0496597, 0.0606411, 0.0224466, -0.0900791, -0.034168, -0.0177101, -0.1092535, -0.0691907, -0.0549271, -0.0140083, -0.0132529, 0.0087052, -0.0613963, 0.0130429, 0.0404738, -0.0048141, -0.0736298, 0.1175106, 0.0462532, 0.0638282, 0.0316802, -0.025696, -0.0422605, -0.0012651, 0.0587626, -0.1239704, -0.0076056], [0.0243339, 0.0565949, -0.070553, -0.0252131, 0.0135261, 0.0208706, -0.073153, -0.0802317, -0.0183024, -0.0226075, 0.0336012, -0.1198589, -0.0078834, -0.0772726, 0.0933997, 0.054989, 0.0356678, -0.0203426, -0.0705024, 0.0716781, 0.0935546, -0.0200391, -0.1004076, 0.0194535, -0.0832091, -0.0217136, -0.0372312, -0.0879339, -0.1070716, 0.0244274, -0.0004038, -0.0006773, -0.0012778, -0.1242703, 0.0048969, -0.0150079, 0.0464433, -0.016215, -0.11605, 0.1184895, 0.0229178, 0.0438305, -0.0220286, 0.1012538, 0.0909091, 0.000407, -0.0196547, -0.0693038, -0.0803179, -0.0167934, -0.0008601, -0.0311606, 0.0005034, -0.0325705, 0.0431398, 0.0764657, -0.1282987, -0.0014321, 3.43e-05, -0.0020552, -0.080801, -0.1007641, 0.0382296, -0.0067185, -0.0264924, -0.0458704, 0.0556903, -0.0505892, -0.0785534, 0.0986271, 0.0513552, 0.0838228, -0.024372, -0.0569422, 0.0307979, -0.0590385, 0.0921053, 0.0302294, -0.0049081, 0.009209, 0.04171, 0.0447467, -0.0608412, 0.0302942, 0.0768355, -0.0901438, 0.0397101, -0.0498129, -0.1112834, -0.0193341, -0.0571748, 0.1022697, -0.024333, -0.0005251, 0.1075528, 0.0605239, -0.0288243, -0.1083268, 0.0717046, -0.0990102, -0.0647297, -0.0211907, 0.0487346, -0.045403, -0.0852335], [0.0325391, 0.0354869, 0.0427061, 0.0935415, 0.0657052, -0.0626006, -0.0618449, 0.0574187, -0.082286, -0.1257075, -0.0409666, -0.1198152, -0.0015299, -0.0177014, -0.0121004, 0.0500186, 0.0219398, -0.0235934, -0.0537854, 0.0552213, 0.0664856, -0.00068, -0.1148048, -0.0302397, 0.0903622, 0.0065802, -0.0256245, -0.0887333, -0.0024832, -0.0013113, -0.0419913, 0.0221015, 0.0032526, 0.0562891, 0.0015318, 0.0432078, -0.0329899, -0.0049272, -0.009531, -0.0595688, 0.0229942, 0.0623814, -0.1068464, -0.0023815, -0.0819486, 0.0102158, 0.0159841, -0.0554018, -0.0936559, -0.0010594, -0.0400215, -0.0050833, -0.0363309, -0.0047216, 0.0511619, -0.0605993, 0.0290331, 6.32e-05, -0.0365807, 0.0331066, -0.1116718, -0.0073068, 0.0260272, -0.0539695, -0.0249862, -0.0687667, 0.0037181, -0.0549374, -0.1117755, -0.0021796, -0.0529492, 0.0578319, -0.0989564, 0.0111414, 0.0664422, -0.0878772, -0.0218844, -0.1112268, 0.0148321, 0.0968464, -0.083879, -0.0234491, -0.1028794, -0.0556321, -0.0203878, -0.0596055, -0.0084414, -0.1007618, 0.0724165, 0.106442, 0.0596881, -0.0553053, 0.0495471, -0.0299512, 0.025074, 0.0883454, 0.0369502, -0.1171222, -0.0067106, 0.009588, -0.1028192, 0.077037, 0.0561413, -0.0435098, 0.0217709], [0.041173, -0.0490216, 0.0078123, -0.0156754, -0.060729, -0.1094698, -0.0272972, -0.0109696, 0.0084401, 0.0894245, 0.036798, 0.039239, -0.0225786, 0.0750888, 0.0204277, -0.1131999, -0.0537718, -0.1065981, 0.0014703, -0.0197873, 0.041878, -0.0010936, -0.014481, 0.0001111, -0.1014031, 0.0820924, -0.0366487, -0.017952, 0.0411063, 0.00111, 0.0083513, -0.0615475, -0.0375318, 0.076868, 0.0013068, -0.0134624, -0.042162, 0.1070696, -0.0189752, -0.0205758, 0.0359371, -0.0374375, 0.0184086, -0.0164306, 0.1026789, 0.0002268, -0.0278209, 0.0911723, 0.0042292, 0.0315871, -3.4e-05, 0.0003685, 3.3e-06, -0.0445429, 0.0736179, -0.0022781, -0.018724, -4.49e-05, -0.0162481, -0.0060891, 0.071403, 0.086597, 0.0744678, -0.0584659, -0.0553708, 0.040925, 0.0668827, 0.1197231, 0.0412849, 0.0289479, -0.0229906, -0.1019993, 0.0156789, 0.0518257, -0.0419233, 0.0768687, -0.0759087, -0.0449482, 0.0740071, -0.0264388, -0.0874279, -0.0100546, -0.0304559, 0.0481514, 0.0045901, -0.0154765, -0.0156678, 0.0831199, -0.0522482, 0.1031987, 0.1118965, -0.063641, -0.0548925, 0.0241598, 0.0013513, -0.110344, -0.103683, -0.0109001, 0.0443616, -0.0534743, 0.0984122, -0.0306965, 0.0560904, 0.0330919, 0.1082598], [-0.0518249, 0.0457349, -0.0259952, -0.0325498, -0.1272392, -0.1092321, 0.0956192, 0.052686, 0.0571949, 0.1019406, 0.0735739, 0.023692, -0.031204, 0.0316025, 0.0491594, 0.0488119, -0.0319437, 0.0024645, -0.0898535, -0.0342226, -0.0794241, 0.0349064, 0.0439055, -0.0315139, -0.0511983, 0.0579341, 0.0460275, -0.0068021, -0.0478367, -0.0653573, 5.94e-05, 0.0608538, -0.0005482, -0.0146029, 0.0007146, 0.0319311, -0.0077543, 0.0725119, -0.0469129, -0.0607072, 0.0675736, 0.0013763, -0.0023162, 0.0221924, 0.0011489, -0.0013828, -0.0212376, -0.0857389, 0.1089785, -0.0002275, -0.0003449, -0.0002559, -0.0348312, 0.1207073, 0.0417691, 0.0949957, -0.1201022, -0.0093423, -0.004643, 8.99e-05, 0.1034933, -0.01896, 0.0780483, 0.0618339, -0.0588783, 0.0913318, 0.1012864, -0.0592311, 0.0587173, 0.0454993, 0.026136, -0.0910166, 0.0241696, -0.093125, -0.0016135, -0.0142268, -0.0701331, 0.0418989, 0.086448, 0.0130245, -0.0592365, 0.1064217, 0.0279487, 0.0240502, -0.1234787, 0.0325023, 0.1201914, 0.0367463, 0.0856912, -0.0654879, -0.0099054, -0.0442428, -0.0263471, -0.0525511, -0.037562, -0.0983224, -0.1001495, 0.0724183, 0.0644325, -0.0464314, -0.0614794, -0.0448667, 0.0949397, 0.1011119, 0.0858199], [-0.1060866, -0.0083555, 0.0438123, -0.0214077, 0.0003427, 0.0302059, 0.0164088, -0.0095083, 0.0379621, -0.037659, -0.032111, -0.1034073, 0.0010995, 0.0555119, 0.0078508, 0.0265246, -0.014689, 0.0114446, 0.0290254, 0.0558385, -0.0700874, 0.0014825, -0.0708859, -0.0108593, 0.0246964, -0.0711686, -0.0167076, -0.0139865, 0.0672113, 0.0181566, 0.0006693, -0.0066007, 0.0073206, 0.0658418, 0.001487, -0.0071257, 0.0651154, -0.0772827, -0.0592925, 0.0183526, -0.0322573, -0.0627258, -0.0487624, 0.0555957, -0.1065556, 0.0003225, -0.0239208, -0.0786054, -0.0909454, -0.0138243, -0.0054876, -0.0006805, -0.0001447, -0.0868832, -0.0624553, 0.0191284, 0.0490353, -0.0002469, -1.9e-05, -0.0136669, 0.0909344, -0.0436057, -0.0160534, -0.0137987, -0.0116052, 0.0416792, 0.0675415, 0.0546958, 0.1059787, 0.0857493, 0.0236156, 0.0833146, -0.0221958, 0.0938495, 0.0129957, 0.0984138, -0.0273013, -0.0605822, 0.0157866, 0.0679122, 0.0305319, 0.0284343, -0.0130136, -0.0254659, -0.0068066, 0.0027802, -0.0633137, -0.0997006, 0.0697701, 0.0578994, -0.0322235, -0.088794, -0.0414197, 0.0245988, -0.0260644, 0.0972672, 0.0881387, 0.0761815, 0.0282313, -0.0509277, -0.0671129, -0.0728017, 0.0458827, 0.0687391, -0.039753], [-0.0501195, 0.0748314, -0.0302175, 0.0652496, 0.0567513, 0.0186081, 0.0682637, 0.0163949, -0.0950601, -0.0977703, -0.0798429, -0.0283264, 7.71e-05, -0.0584086, 0.0052146, 0.0007173, 0.0035911, 0.0027176, -0.1215192, -0.0752325, -0.054933, 0.0047327, -0.116544, 0.0153611, -0.0365991, -0.0781928, 0.0153176, -0.1122183, -0.0895787, 0.0153903, -6.46e-05, 0.0844148, 0.0040102, -0.0840318, 0.0075436, -0.0006697, 0.0699981, -0.0325946, -0.079615, 0.1096683, -0.0683417, 0.0131296, -0.0314884, 0.1100091, -0.0857193, 0.0015142, -0.0440827, -0.0895922, -0.1021126, 0.0395511, -0.0004104, 0.0232489, -0.0157723, 0.0597711, 0.0932044, -0.0340891, -0.0513685, 0.001553, 0.0051385, 0.0011385, -0.0871657, 0.070927, 0.0019195, 0.0292201, 0.0243493, -0.0773702, 0.0512455, 0.0208984, -0.0938542, 0.0617201, 0.1192788, 0.0193745, 0.1200022, 0.1000817, -0.0753762, 0.0596262, -0.0794774, 0.0218967, -0.0436109, -0.063498, 0.0910685, 0.0332956, -0.0889633, -0.0742556, -0.0089479, -0.115605, 0.0621259, 0.0583213, -0.1155226, -0.1037919, -0.0985223, 0.1184839, -0.0238887, -0.0131549, -0.0409121, -0.0150787, -0.0153883, 0.0108951, 0.0854285, -0.0132913, -0.0501331, 0.0650731, -0.0155409, 0.0430341, -0.1073629], [-0.0452207, 0.0467898, -0.1191827, 0.0946655, -0.0470816, -0.0034764, -0.0442003, -0.0965484, -0.1073688, -0.1217322, -0.0283932, -0.0716634, 0.001167, 0.0203461, -0.0329022, 0.0093727, -0.0312318, 0.0372259, 0.0934194, 0.0907587, 0.0730508, 0.0230156, 0.0186349, -0.0008927, -0.011121, 0.0117285, -0.0735415, 0.0554961, -0.0854425, -0.0879591, 0.0014446, 0.106919, 9.2e-06, -0.027704, 0.0004996, -0.0001804, -0.0710174, -0.1268654, -0.0599746, 0.0292527, -0.0746542, 0.0741034, -0.090731, 0.0234009, 0.0810714, -0.0318392, -0.0817951, -0.0384776, -0.0908594, -0.0379982, 0.0371332, 0.0039591, 0.0082917, 0.0829821, -0.055698, -0.1230368, 0.0960304, -0.0008197, 0.0001555, -0.011011, -0.0513629, -0.0262611, 0.0767276, 0.0441286, 0.0506306, -0.0566967, 0.0640888, 0.0862264, -0.0468084, 0.0247938, -0.0507887, -0.0560092, 0.0242179, 0.0645178, 0.1046008, -0.0040717, -0.0683884, 0.0628188, 0.0547691, -0.0582572, 0.0966563, -0.0233295, -0.1035789, -0.0708659, 0.0947121, 0.0240929, 0.0820894, 0.0487816, -0.0154126, 0.0589611, 0.017006, -0.0476248, -0.1086173, 0.060455, -0.0302478, 0.0064866, 0.0008761, -0.0647011, -0.1080099, 0.0333772, 0.1079075, -0.0919095, 0.0748712, 0.0278611, -0.0466143], [-0.0027739, -0.0304231, 0.0130238, 0.1054737, 0.0507881, 0.0960037, -0.046308, 0.0542538, 0.0245652, 0.0075239, -0.059441, 0.0615838, 0.0010067, 0.0735828, -0.0469453, -0.0338529, -0.0574991, 0.05923, 0.0774597, -0.0744527, 0.0721765, 7.7e-05, -0.0301864, 0.024249, -0.0733095, -0.0737009, 0.0210824, -0.0420953, -0.1048036, 0.0061935, -0.0398462, 0.0238256, -0.0014526, 0.0657034, -0.0008239, 0.0009025, 0.0641585, 0.0532667, 0.0832063, 0.042273, 0.0164237, -0.0240298, 0.0650726, 0.012331, 0.0925702, 2.56e-05, -0.0093641, -0.1173357, -0.0648369, 6.26e-05, -0.0178088, -0.0001332, 0.0249546, 0.043394, -0.0129423, -0.1173526, -0.0712391, -0.0014685, -1.03e-05, 0.0004464, -0.0074199, -0.1185307, -0.0755535, -0.108325, -0.0618258, -0.0076019, -0.0951791, 0.039927, 0.0433183, -0.0375269, -0.0682916, 0.0274036, -0.0001719, 0.1215085, 0.012877, -0.1023872, 0.1175466, 0.0131543, 0.0293819, -0.062434, -0.0701607, 0.0460896, 0.0303602, 0.070013, -0.1092281, -0.0842033, -0.0251384, -0.0105555, 0.0595776, -0.071212, 0.0698989, -0.0426059, -0.1057427, 0.0219989, -0.0861414, -0.0036149, 0.1042566, -0.0916751, -0.0436726, 0.0237712, -0.0953767, -0.0247489, -0.0430491, -0.0653342, -0.030332], [0.0215528, 0.126451, 0.0920657, -0.0660835, 0.0561618, 0.0814131, -0.0926457, -0.107597, -0.0889393, 0.0129591, -0.0749636, -0.0469238, -0.0006074, 0.0449366, 0.0997499, 0.0057459, 0.0304253, 0.0956696, 0.0609484, -0.0727121, 0.0540491, 0.0041376, -0.0267899, 0.0353029, -0.0827415, 0.0973898, -0.0032917, -0.0755476, -0.0181063, -0.0172256, -0.0003785, 0.0576617, 0.0055742, -0.1250831, -0.0259258, -0.0359236, -0.0854909, -0.0342595, -0.0382385, 0.0315404, 0.0134256, -0.0349439, 0.0863146, 0.0580051, 0.0239054, 0.0139272, 0.0102038, -0.0649086, -0.0209287, -0.029515, -0.0001417, 0.0011493, -0.0143936, -0.0461144, -0.0263561, -0.066599, 0.0179175, -0.0252212, 0.0402899, -0.0008861, -0.0695499, -0.114582, -0.0862928, 0.0090868, -0.0022886, -0.111216, -0.0862036, -0.0994766, 0.0534337, 0.055476, 0.0346281, 0.0922843, 0.0286925, 0.1041839, 0.0276782, -0.0970173, 0.1057255, -0.0210627, -0.0018658, 0.0208741, 0.0092312, -0.0713084, 0.0566407, 0.0440901, 0.0372926, -0.126198, -0.0409697, -0.0063049, -0.0890602, -0.0111637, -0.0976405, -0.0058626, -0.0446121, 0.0319552, 0.0434579, -0.0838159, 0.0360817, -0.07824, -0.0501475, 0.0461366, -0.0462264, -0.0618672, -0.0081577, -0.0650647, -0.0277048], [0.0472022, -0.0653047, -0.0340493, -0.0660477, -0.103051, -0.0850027, 0.0480504, 0.1105151, 0.0435642, 0.0945016, -0.0612117, 0.0280141, -0.000263, 0.0539563, 0.0610662, -0.0879841, -0.004738, 0.0587032, -0.1176517, 0.0184143, -0.0848263, 0.0279377, -0.0453294, 0.0329725, -0.0261196, -0.0174694, -0.0803079, 0.0900833, -0.0670614, -0.0016675, -0.0253494, -0.0344211, -0.0081404, -0.035171, 0.0315817, -0.0193028, 0.0609252, 0.089489, 0.0245178, 0.0605553, -0.0125438, 0.0693102, 0.035305, -0.054439, 0.1063473, 0.0403103, 0.0762224, -0.0096272, 0.0520944, -0.021024, 0.0015303, -0.0036302, -0.0428973, -0.0353149, 0.0499438, -0.0233847, -0.1044942, -0.000148, 0.0071807, 0.0057539, -0.0483088, 0.0382098, 0.0572046, 0.0575492, 0.0420005, 0.1002855, 0.1054515, 0.0183381, -0.0302906, -0.0646436, -0.0932913, -0.1020439, -0.0211053, -0.1178842, 0.038464, -0.0676345, 0.0618478, 0.0057809, -0.0164393, -0.0338136, -0.0173599, 0.1122911, -0.0604486, 0.1152862, -0.0286266, -0.0530978, 0.0988386, 0.0626214, -0.0231933, 0.028369, 0.014177, -0.0665841, 0.0864765, -0.1249838, -0.0514212, 0.0095772, -0.1151807, 0.0687413, -0.0650759, 0.0674323, 0.0215099, -0.0072341, -0.0014749, -0.0106006, 0.0930717], [-0.0182362, 0.0949448, 0.0401449, 0.0078027, -0.0470326, -0.0673268, -0.0144774, 0.0393134, 0.0297742, 0.0337252, -0.0720684, -0.0753798, 0.0043914, -0.0741231, -0.047477, 0.060679, 0.0737393, 0.1011549, -0.0767928, -0.0786122, -0.057283, 7.9e-05, -0.0123426, -0.0005232, -0.0931881, -0.1003268, 0.0756137, -0.0806082, 0.0562376, 0.0446764, -0.0039857, 0.0173687, -0.0001777, -0.0827482, 0.0001588, -0.0028933, 0.0113707, 0.0373374, -0.0990621, 0.0393118, 0.0328655, -0.0004353, -0.0245558, 0.0067448, -0.0347942, 0.000822, -0.0036179, 0.0484307, 0.064161, -0.0276072, -0.009457, 0.0041781, -0.0274126, 0.0885516, 0.0493162, -0.0732845, -0.0528024, 0.0002776, 0.0161425, -0.0267271, 0.0189746, -0.065303, 0.0595616, -0.0693984, 0.0628802, -0.0010573, 0.0199063, -0.0610838, -0.1022986, -0.0655775, 0.0333118, 0.0661865, -0.0377453, 0.0532789, 0.0751911, 0.0044503, -0.0710938, -0.0660387, 0.0810528, -0.0855192, -0.0907533, -0.0716811, -0.0930412, -0.0598154, -0.0128215, -0.0857243, -0.108271, -0.0685824, -0.0553031, -0.1071065, -0.0203676, -0.0018022, 0.0534494, -0.0053091, 0.0003419, 0.0196999, 0.0701429, -0.0352987, -0.0036093, -0.0553101, -0.0301963, -0.0331073, 0.0365443, 0.0599696, -0.0140003], [0.1129692, 0.0332551, 0.0455664, -0.0064099, -0.0394534, 0.0072286, -0.0044586, -0.025079, 0.0865381, 0.0661596, 0.0637815, -0.1024167, -0.0014648, 0.0644531, -0.1168816, 0.0240165, -0.0244352, -0.0571363, -0.122797, -0.0418005, -0.0976847, 0.0015174, 0.0732119, 0.0404268, -0.0215905, 0.1185756, -0.1293051, -0.0786233, 0.1256718, -0.0554619, -0.0380515, 0.0525227, -0.0004881, -0.0020036, -0.0009236, -0.024766, 0.0900267, 0.0661968, 0.1147985, 0.0068604, -0.0524577, -0.0020041, -0.0232325, -0.0815442, -0.0654458, -0.0342069, 0.0639456, 0.1186092, 0.1127254, 0.0291929, -0.0332452, -0.0237616, 0.01026, -0.0257228, 0.0977463, 0.0462565, 0.0110413, 7.58e-05, 0.0024041, -0.0201042, -0.0214359, 0.0510313, 0.0903726, 0.1050393, 0.0292601, -0.0626761, -0.0041676, -0.0298044, -0.0277673, -0.1133446, -0.0177506, -0.0775413, -0.0554886, -0.1140353, -0.1050339, -0.0529459, -0.0582706, -0.0400459, -0.0677036, 0.0336523, -0.0286987, -0.0163491, -0.0373404, -0.0285029, -0.0737584, -0.0129762, -0.0503426, 0.0406129, 0.0914133, 0.0364435, -0.0293601, 0.0177301, 0.0577108, -0.0277726, -0.043321, -0.0572668, 0.0232276, 0.0852159, 0.0285416, -0.0105204, 0.0262032, 0.0002724, -0.0524714, 0.0866242, 0.0775304], [-0.0577334, -0.0318232, 0.0582791, -0.0221077, -0.0638205, -0.0279936, -0.0801422, -0.0362541, 0.0261292, -0.0591913, -0.094203, 0.0222203, 0.0407885, -0.0632321, 0.0451197, 0.0467809, -0.0528626, -0.0333473, -0.0095545, -0.0252718, 0.0179973, 0.0425838, 0.0304479, 0.0001483, -0.0072567, 0.0151684, -0.0131953, -0.0179384, 0.0527744, 0.0250074, -0.0071251, -0.0778716, -0.0001736, -0.1317625, 0.0007013, -0.0259803, -0.021476, -0.0666261, 0.024138, 0.0838947, -0.0742515, 0.097129, 0.0351009, 0.0162022, 0.0312328, 0.0005803, -0.114901, -0.0291054, 0.0259665, 0.0005822, -0.0015079, 0.0210891, -0.0001812, -0.0781133, 0.0776566, -0.0059301, 0.0629556, 0.0002815, -0.0093547, 0.0393584, 0.0234564, -0.0584035, 0.0410125, -0.049339, 0.0488112, -0.0866032, -0.0498284, -0.0148086, 0.0851495, 0.0330084, 0.0651958, 0.0120704, -0.0128452, 0.004691, -0.0005672, 0.0718328, -0.1155538, 0.0055195, -0.0271618, 0.089186, -0.005225, -0.0886473, 0.0090327, -0.0143307, 0.1202182, -0.0354108, -0.0181271, 0.0873009, -0.0363533, 0.0882196, 0.0582904, 0.0850032, -0.019912, 0.1027301, -0.0315866, -0.0403209, -0.0469609, -0.086619, 0.0653013, -0.0928439, 0.0073293, 0.0709459, -0.0140567, -0.0561298, 0.0242354], [-0.0966022, -0.0402489, -0.0883358, 0.1034138, 0.0014511, -0.0231744, 0.036996, 0.0212546, 0.0629404, -0.0426349, -0.038286, -0.0847404, -0.0130842, -0.091502, -0.0326401, 0.0675179, 0.0296023, 0.0184142, -0.0827908, -0.0646722, -0.0566079, -0.0076119, 0.0057435, 0.0015383, -0.1108704, 0.0758578, 0.0312661, 0.0460837, -0.0520571, 0.082289, 0.0431815, -0.0011978, -0.0089001, -0.1221314, 0.0427683, -0.043455, -0.0686509, -0.0103503, -0.0436446, 0.1177677, -0.0733818, -0.1114033, 0.059756, -0.0295148, 0.0566752, -0.0074684, -0.0701836, -0.0747799, -0.1146898, -0.0305411, -0.0003848, 0.0431646, 0.019402, -0.0577294, 0.0291349, 0.0488582, 0.0616071, 0.0068249, -0.0004955, 2.03e-05, -0.0550771, -0.1201855, -0.0957932, 0.0520136, -0.0632472, 0.0114404, 0.0095426, -0.0869231, -0.0670227, 0.0949501, 0.0346273, 0.0888036, 0.0714833, 0.0401305, 0.0362385, 0.014158, -0.0675084, -0.0381802, -0.0328721, -0.0864146, 0.0443927, -0.0816226, 0.0780707, 0.0607878, 0.0813187, -0.0874065, -0.0508185, 0.0600082, 0.0685624, -0.0410676, -0.0912992, 0.1128005, -0.1118336, 0.0028778, 0.0099991, -0.0092768, 0.0404411, -0.013009, -0.0102181, -0.1067448, -0.0864221, 0.1138365, 0.0635187, -0.113481, -0.1019895], [-0.0123953, 0.0201728, 0.0185307, 0.0902125, -0.0607429, -0.064987, 0.0441993, -0.0258575, -0.0717648, -0.040793, -0.0775363, 0.0238739, 0.0209931, -0.0561243, -0.0710204, 0.0100057, -0.014056, -0.0203446, -0.0252209, -0.0257416, 0.0477035, 0.0002952, 0.0717383, 0.0011259, 0.0852961, -0.0844932, -0.0144457, -0.0056155, -0.063013, -0.0478871, -0.0177407, -0.0171287, -0.0013801, -0.0862718, -0.0289067, -0.0006233, 0.0801431, 0.0784953, -0.0855568, -0.0379973, -0.03437, 0.052254, -0.0944047, 0.0159034, 0.0618916, 0.0001814, -0.0834283, -0.0031096, 0.0222488, 0.0006853, 0.00027, 1.15e-05, -0.0309756, 0.0390221, -0.0546323, 0.0729539, -0.0717005, 4.54e-05, 0.002987, -0.017887, 0.0758179, -0.0275737, -0.0964585, 0.0680238, 0.0206168, 0.0312739, -0.0856225, 0.0942045, 0.0994834, 0.0016852, 0.0286088, 0.0256228, -0.0866743, -0.0524839, 0.0560233, -0.0369614, -0.0528894, -0.0136021, 0.0832292, 0.0779933, -0.004245, -0.0111289, -0.0771409, -0.0411172, -0.0914659, -0.0601758, 0.0298619, -0.0813805, 0.0307781, -0.0153937, -0.0108668, -0.0270195, 0.0519702, 0.0303786, 0.0592529, -0.0567943, -0.0721541, -0.0525955, -0.0248286, 0.0101321, -0.0899336, 0.0163609, 0.0805808, 0.0670223, 0.0541981], [-0.0899111, -0.0540169, -0.0114183, 0.0584741, -0.0730731, 0.1178249, -0.1125726, -0.0918155, -0.011497, -0.0449832, -0.1042472, -0.0354975, -0.0011047, -0.0035071, 0.0725032, -0.0312511, 0.0987096, 0.0129328, -0.0712053, 0.0365294, -0.0709583, 0.0290388, -0.0192661, 0.0181892, -0.0277761, 0.0211106, 0.0368218, -0.0765015, -0.0727611, 0.1142747, -0.0001348, -0.0111879, 0.0126401, -0.033328, -0.0003834, -0.0008852, 0.0208682, 0.0123781, -0.0194288, 0.0170311, -0.0333, 0.0426128, 0.0419548, -0.0169487, 0.0393059, 0.0367524, 0.0064594, -0.0591324, 0.0290188, 0.0320616, -0.0013453, 0.0372938, -0.0365427, -0.0871991, -0.1094757, 0.0007394, -0.1185295, 0.0002311, -9.27e-05, 0.0070557, -0.0203387, -0.0966788, -0.1135495, 0.0180658, -0.0583942, -0.0366169, 0.0068168, -0.0484168, 0.0242204, 0.0767785, -0.0409855, -0.102274, -0.0251709, -0.006257, 0.0238172, -0.0303174, 0.066341, 0.0326718, 0.0598454, -0.0549247, -0.0435387, -0.1215429, -0.0025898, -0.0366211, 0.024203, 0.0611591, -0.0794561, -0.0101372, 0.0386168, 0.0337192, -0.0351793, 0.08241, -0.1157695, -0.0113142, 0.0875122, 0.0194052, 0.0376175, 0.0136938, -0.0468225, -0.0788441, -0.0680967, -0.0307715, -0.0444312, -0.0485322, -0.1271626], [0.0199445, 0.0622534, -0.1181672, 0.0281885, -0.0605103, 0.0281136, -0.1054132, 0.05308, -0.1180077, -0.1013292, 0.0014219, 0.0227339, 0.0249017, 0.0591209, -0.0613062, -0.1005114, 0.0077045, 0.0327024, 0.0806697, -0.045769, 0.0495448, 2.62e-05, 0.027244, -0.0061686, 0.1245052, -0.0466419, 0.1148019, -0.0568145, 0.0711321, 0.1029511, 0.00088, -0.0050626, -0.0070347, -0.0835261, -0.0112176, 0.0125149, -0.0724384, 0.0149003, -0.0909653, 0.0526104, 0.0757943, 0.0749783, -0.0350116, -0.0052771, -0.0334771, -0.0002083, 0.0292631, 0.0223409, -0.1221047, 0.0003198, -6.81e-05, -0.0274056, -0.0424354, -0.021289, -0.0162634, -0.0508111, 0.0124121, -0.0346234, -0.0227582, 0.0281158, 0.0132125, 0.0367418, -0.0192557, -0.0118878, -0.023481, -0.046936, -0.0529384, -0.0270957, 0.0488059, -0.0263457, 0.048692, -0.0246295, -0.1000566, 0.0731499, 0.0754718, -0.039563, -0.0742086, -0.0077766, -0.036771, -0.0137467, 0.0115501, -0.1002923, -0.0313014, -0.1228064, -0.1029792, 0.0510403, 0.101013, -0.0071489, -0.0488827, 0.0286335, -0.0336324, -0.094758, 0.0020109, 0.0560662, -0.1201882, 0.0823375, 0.0965643, -0.0278739, 0.1011201, -0.062655, -0.0834169, 0.0452959, -0.046106, 0.0356731, -0.0959227], [-0.0983536, -0.0761373, 0.0634933, -9.96e-05, -0.0560581, -0.0518461, -0.0293652, -0.0098875, -0.0962713, -0.0937259, 0.029788, 0.0078988, -0.0006048, 0.0545965, -0.0491581, -0.0621176, -0.0712136, 0.0248996, 0.0890828, 0.0439522, 0.0274268, -0.0001963, -0.0023826, 0.0411531, 0.0940167, 0.0041384, 0.0726115, 0.0219084, -0.0343109, -0.038686, -0.0054788, 0.0562604, 0.014604, -0.109341, -0.0021649, 0.0300884, -0.0342329, 0.0316845, 0.0236617, 0.0245102, -0.0868073, 0.0958122, -0.0626923, 0.0820306, 0.0491477, 0.0079587, 0.0592085, -0.0256833, -0.1134063, -0.0073522, -0.0083366, -0.0415298, -0.0013079, 0.1086802, 0.0292408, -0.0756204, 0.0518933, -0.0001807, -0.0123167, -0.0107845, -0.0364186, 0.0418469, -0.1049516, 0.0101157, -0.0896213, 0.0683025, -0.0929135, 0.0442798, 0.064598, 0.0965566, -0.0440399, 0.0653104, 0.0447541, -0.0447367, -0.0278801, 0.0554027, 0.035125, 0.0495831, 0.1083889, 0.0633784, -0.0759412, -0.0251299, 0.0254776, -0.0921444, 0.0423398, 0.0079043, -0.0138771, -0.0718106, 0.0232345, 0.0006779, -0.0190496, -0.0127441, -0.0795407, -0.0746635, -0.0514333, 0.0570317, 0.0271705, 0.0214702, 0.1071937, -0.0719735, -0.0243629, -0.0236344, -0.0521009, -0.0383899, 0.0638103], [-0.1034088, 0.0441802, 0.0451903, 0.0876914, 0.0163802, -0.0277769, -0.0752101, 0.0264818, -0.0669745, 0.0298577, 0.0338893, -0.1021254, 0.0220746, -0.0588119, -0.0011736, 0.0871976, 0.0692564, 0.0645594, 0.0929898, 0.013216, -0.0255881, -0.0409409, -0.1082425, -0.0008224, 0.0371999, 0.0447434, -0.0454954, 0.0519537, 0.0672555, -0.0222719, 0.0187443, -0.1013767, 9.5e-06, -0.0673262, -0.0005058, -0.0015308, 0.0814184, -0.0074853, -0.1115019, -0.0111901, 0.0601508, -0.0083872, -0.0601874, 0.0149087, -0.0786645, -0.001321, -0.1007242, -0.0629973, 0.0167623, -0.0392947, 3.74e-05, -0.0331946, -0.014935, -0.0366825, -0.0419709, 0.0394089, -0.0206093, -0.0268576, -0.0134532, -2.52e-05, -0.0864855, 0.0104151, 0.0087529, 0.0285408, -0.0641566, -0.0803727, -0.1075719, 0.0200718, -0.075451, 0.1014703, 0.0948138, 0.013397, -0.091914, -0.0111964, -0.0163118, -0.0737374, 0.0929542, 0.0158948, 0.0417418, -0.0866127, 0.0232033, -0.0057714, 0.058636, -0.0918977, 0.0357406, 0.0739904, 0.0275299, -0.1145286, -0.1141097, -0.0379958, -0.0503865, 0.1076629, -0.0464888, -0.0466405, 0.0274707, 0.0721708, 0.0488249, -0.1123579, 0.0224051, 0.0980516, -0.1107541, -0.0640784, -0.0332039, -0.0441078, -0.0649959], [0.0233382, 0.0392843, -0.1007414, -0.0087754, 0.0326549, 0.0668901, -0.0419137, -0.045086, 0.0276126, -0.0956522, 0.0691906, -0.0196226, -0.0237968, -0.0204795, -0.0992437, 0.0076621, -0.1067251, -0.0090701, -0.0677164, 0.1037203, 0.0912286, -0.0001079, 0.0832502, -0.0004451, 0.1142312, 0.0548216, 0.1146647, -0.0493448, -0.0769217, 0.0362383, 0.0015281, 0.0280146, 0.0315538, 0.0215612, -0.0150123, -0.0315191, -0.0462191, 0.0127488, 0.0280746, -0.0866846, 0.074648, 0.0843342, 0.0066936, -0.1245692, 0.1079458, -0.0071472, 0.0198735, -0.1134803, 0.0272558, 0.0012328, 0.000137, 0.0281191, 0.0046754, 0.1061478, 0.0888901, 0.0013662, 0.0926814, 0.0343032, -0.0001453, -0.0047121, -0.0661175, 0.0687699, 0.0540874, -0.0777549, 0.0455009, -0.0685909, -0.0779019, 0.0475584, -0.0213554, -0.0693141, 0.104219, 0.0409044, -0.1150347, -0.0120359, -0.0592398, -0.0584665, -0.0006084, -0.0584817, -0.016328, 0.0760104, -0.0910408, -0.0983303, 0.0018412, -0.0596173, -0.0002209, -0.0331403, -0.0586762, -0.113824, 0.0993327, 0.0241512, -0.0349888, 0.0067185, 0.0425158, -0.0675887, 0.0043407, 0.0423771, 0.0263142, -0.0938143, -0.0363351, -0.0083433, -0.0641044, 0.0899922, -0.0052244, -0.0018918, 0.0193672], [0.0447378, -0.0839322, 0.0486634, -0.1102138, -0.0682842, -0.1177412, 0.046078, -0.0297934, 0.1146421, 0.1172048, 0.0518479, -0.0516947, -0.0183501, -0.0579234, 0.0644595, 0.0417027, 0.0992494, -0.0404558, 0.010084, -0.0919097, 0.0296824, -0.0004378, 0.0184133, 9.41e-05, -0.0537869, 0.0250327, -0.1123517, 0.0950104, 0.0534395, 0.0147196, -0.0010116, -0.016664, 0.0002273, -0.0075892, 0.0131246, -0.0247754, 0.0857694, 0.0257539, 0.022815, 0.0768345, 0.0806048, 0.0509078, 0.0710737, -0.102046, 0.0110229, 0.0071619, -0.0222622, 0.0873898, -0.0587119, 0.0003123, 0.0005885, -0.0013843, 0.0008584, -0.0313122, 0.014106, 0.0391411, -0.0623229, 0.0002807, -0.001245, -0.038203, -0.0652278, 0.0358045, 0.1023542, 0.0811661, 0.088181, 0.0061914, 0.0238401, -0.0720951, 0.011691, 0.0188297, -0.0728825, -0.0505206, -0.0496148, 0.0246587, -0.1049278, -0.0659468, 0.0516007, -0.0661078, -0.0930107, -0.0262277, -0.0221054, 0.0871212, 0.0192484, 0.0740172, -0.0009265, 0.0130404, 0.1180124, 0.0227447, 0.0405145, 0.0030732, 0.07037, -0.0733899, -0.0532458, -0.0558313, -0.0297568, -0.0313828, 0.0138087, 0.1230016, -0.0213757, -0.0517442, -0.0630126, -0.0065454, 0.0843047, 0.0954548, 0.1197399], [-0.0330623, 0.1061858, 0.1076141, 0.0753765, -0.0711833, 0.0794207, -0.050912, 0.0217101, -0.0253089, 0.054242, -0.0395403, -0.0182309, 0.0022082, 0.0181188, 0.0613626, -0.0064361, 0.0563026, 0.0243012, 0.1010268, -0.0201954, 0.0174063, -0.0205526, 0.0363338, 0.0004105, -0.0979732, 0.1073512, -0.0729953, -0.0525402, -0.052848, 0.0406666, -0.041449, 0.0112456, -0.0362051, 0.026741, 0.0360582, 0.0094388, -0.1039906, -0.0514952, -0.1064389, 0.0345809, 0.0406262, -0.0595801, 0.0494069, -0.0245052, -0.0498989, -0.0075917, 0.089973, -0.0310284, -0.0648505, 0.0291841, 0.0014804, -0.0104685, 0.0003847, -0.0640826, -0.040056, 0.0491879, 0.0584731, -0.0174937, 0.0002066, 0.0131886, -0.1140201, -0.1198927, 0.0246027, -0.0329069, 0.0649621, 0.0363162, -0.0420051, 0.0330431, 0.0732522, 0.0707522, -0.0191653, 0.0367181, 0.0174897, 0.1028922, 0.1105295, -0.0204409, -0.0751276, -0.1105433, -0.0548077, 0.002289, -0.0238998, 0.0728525, 0.0224982, 0.0701004, -0.0062473, -0.0180992, 0.004307, 0.0098486, 0.0191206, -0.0596652, -0.0897922, -0.016506, -0.0202098, -0.0009033, 0.0743129, 0.0390305, 0.0642595, 0.0092374, -0.0506907, -0.0547035, 0.0803387, -0.0544372, -0.0479843, -0.0446324, -0.0323521], [0.0954766, 0.0253378, 0.0770473, -0.0690123, -0.1216956, -0.0191011, -0.0321976, 0.1187933, 0.0268374, 0.0317149, 0.0059059, 0.0309325, 0.0140261, 0.0905799, 0.0151776, -0.1171682, 0.0119668, -0.1227154, 0.0709427, 0.0623236, 0.0130777, -0.0068314, -0.0274066, 0.0156376, 0.0796471, 0.0419652, 0.0255185, 0.0769226, -0.0289651, -0.0606614, 0.0412543, 0.085122, 0.0400009, -0.0224269, -0.0011535, 0.0346858, 0.0485643, 0.019192, -0.0656787, 0.0691641, 0.0182248, -0.0181419, 0.0544616, -0.0475369, -0.078067, 0.0407898, -0.0066434, 0.0044324, -0.0458138, 0.014405, 0.000705, 0.01973, 4.79e-05, -0.0714108, 0.0093211, -0.0615824, -0.0517512, -0.0372524, -0.0275237, -0.0205396, 0.1053949, -0.0316928, -0.007276, 0.0120432, -0.0444346, 0.110902, -0.0216939, 0.096447, -0.0754958, -0.0069838, -0.0546883, 0.0545272, -0.0311997, 0.045161, -0.0355767, -0.0301436, -0.0912816, -0.066349, 0.02741, -0.0140462, 0.0190305, 0.113731, -0.007806, -0.0508267, -0.0524142, -0.018375, -0.0174618, 0.0108574, 0.0654417, -0.065046, 0.1122844, -0.0591136, -0.0618092, 0.0485965, 0.0968723, -0.0246205, -0.024212, -0.0335557, 0.0571051, -0.045186, 0.0708598, -0.0805362, 0.0955654, -0.0145847, 0.0847242], [0.0302425, 0.0149087, 0.1200828, -0.0540238, -0.0387548, -0.0234798, 0.0353071, -0.059754, 0.1085762, -0.0351863, 0.0230206, 0.1055952, 0.0293362, 0.0339327, -0.0759661, -0.089435, 0.0160777, -0.0266724, 0.0231758, -0.0870537, -0.0924829, 0.0015158, 0.0372458, 0.0153178, -0.0498962, 0.0495717, -0.0382863, -0.0344219, 0.1003323, -0.0270625, -0.0276214, 0.0055039, 0.042671, 0.0367496, -0.0169793, 0.0242938, 0.0545799, 0.0266095, -0.0552397, 0.0853193, 0.0145806, 0.0760827, -0.0325503, -0.0226881, 0.0119401, -0.0121171, 0.1000219, 0.0757147, -0.0703994, -4.8e-06, -0.0006427, -0.0003527, 0.0129751, 0.0761177, -0.0534307, 0.0010871, -0.1051894, -0.0034523, 0.0033598, 7.67e-05, 0.0038069, -0.0231661, 0.0444727, 0.0724211, 0.1145613, -0.0067049, 0.017517, 0.0212344, 0.0550969, -0.1168786, -0.02864, -0.0262175, 0.0942097, -0.070461, 0.043256, -0.0160317, -0.0849362, -0.1098027, -0.0539765, -0.0095439, -0.0589133, 0.0734622, 0.0665594, 0.0655295, -0.0373931, -0.0371649, 0.066967, -0.0194574, 0.0803962, 0.0502493, 0.0099097, -0.0213979, 0.127132, -0.036561, 0.0191379, -0.0748211, -0.0870557, 0.0280714, 0.0143114, 0.0855366, 0.0369065, 0.010508, -0.0446132, -0.0148766, -0.0399584], [0.0782694, 0.0363087, -0.0683805, 0.0014704, 0.0036163, -0.0784792, -0.0194416, 0.1159234, -0.0532886, -0.0105839, 0.0166312, -0.0580018, 0.0010301, 0.0128912, -0.0033254, 0.0313492, 0.0364302, 0.0525004, 0.0569549, -0.0939688, -0.0801791, 0.0010436, -0.0058818, -0.0015379, -0.0750379, -0.0047086, -0.0145685, 0.0311417, 0.0660249, 0.0408837, -0.014928, 0.0390546, -0.0004125, -0.0765657, -0.0015224, 0.001363, -0.0083693, 0.0400977, 0.0186548, 0.0427655, -0.0302715, 0.1102718, -0.0861525, -0.0754965, -0.0626831, -0.0006205, -0.0499884, 0.0689688, -0.0082945, -5.79e-05, -0.0300791, 0.0001956, 0.0004261, -0.0460327, -0.0475413, -0.0666692, -0.0462534, -0.0001504, -0.0003581, 5.05e-05, -0.0216482, -0.0024783, 0.0788217, 0.1001457, -0.0719385, -0.0076617, 0.0175016, -0.0065473, -0.0607501, -0.1125071, -0.0483484, 0.0564278, -0.0202178, 0.0019167, -0.0064589, -0.0079212, 0.0528592, -0.0158169, -0.0576187, -0.0741833, 0.0529379, 0.1087981, 0.0439488, -0.1141393, 0.0172454, -0.0614719, 0.0557423, 0.0502253, 0.0478164, 0.086916, -0.009896, -0.0896079, -0.0543544, 0.0429821, 0.0968672, 0.0559406, 0.0628794, 0.0365075, -0.0671789, 0.0119056, -0.0260075, -0.0690941, -0.0313954, 0.1034134, 0.0769301], [0.0741532, 0.0543618, -0.0320167, -0.0321544, 0.0298218, -0.0956459, 0.0396047, 0.0645228, -0.0468204, 0.0739003, -0.0955471, 0.051255, -0.0224086, -0.0710275, -0.0409993, -0.0352369, -0.0677808, -0.0794683, -0.0157118, -0.0653649, -0.0751749, 0.0225004, -0.0500265, -0.0173231, 0.0440001, -0.0547651, 0.1045098, -0.0903567, -0.0552158, -0.0139465, 0.013614, 0.06016, -0.0177296, -0.0266007, 0.0002402, -0.022513, -0.0292625, 0.0912424, -0.0116577, -0.0233355, -0.0044399, 0.0519441, 0.0425418, -0.0232136, 0.0010015, 0.0025207, 0.0063031, -0.0350885, 0.0238376, -0.0008742, -0.0113219, 0.0098659, 0.0135417, -0.077298, 0.0016568, 0.0526246, 0.0486582, 0.0043573, 0.0011014, 0.0246571, 0.0892445, 0.0870092, 0.0051739, -0.0895022, -0.0571225, -0.0636375, -0.0766212, -0.0907606, 0.0590011, 0.082103, 0.0095238, -0.0529602, 0.0813132, 0.0138623, -0.080171, -0.0273407, 0.0988551, 0.0517128, 0.0191194, -0.087475, 0.0097906, -0.0663145, 0.0309271, -0.0185992, 0.0790172, 0.0049097, -0.0631809, -0.0283504, 0.0297928, 0.0906044, -0.075113, 0.0737244, 0.0199609, -0.0162085, -0.0575144, 0.0824164, 0.0999827, -0.0107936, -0.0537819, -0.0618296, -0.0097399, 0.073516, -0.0342378, 0.0331319, 0.0153944], [-0.0423498, 0.0387387, 0.0233406, 0.093219, 0.1153862, 0.0433805, -0.094537, -0.0508545, 0.0586922, 0.0069058, -0.0103743, 0.0356511, 0.0078523, 0.0614359, -0.0256922, 0.0947655, -0.0035678, 0.0362447, 0.0453991, -0.0516002, 0.0758223, 0.0002546, -0.0568241, -0.0195142, 0.0838426, 0.0294214, -0.0824079, 0.0465011, -0.0677802, -0.0346085, 0.0003647, -0.0671852, -0.0178254, -0.1210525, -4.3e-06, 0.0348521, -0.1287727, 0.0104687, -0.1063849, 0.0785674, -0.1108173, -0.0397752, -0.1143618, 0.0843469, -0.0748043, 0.0099399, -0.0104982, -0.1260224, -0.0366739, -0.0038306, 0.0194446, 0.0013464, -0.0001089, 0.0401904, -0.0325462, 0.067317, 0.1006023, 0.0064266, 0.0276124, 0.0001582, 0.0669605, -0.1225203, 0.028161, 0.0295058, -0.0287548, -0.0076384, 0.0598227, 0.0574358, 0.0397886, -0.1100604, 0.0860332, -0.0422522, 0.0014692, -0.085154, -0.0511994, 0.0622534, -0.1313454, -0.0285831, -0.068274, 0.1244821, 0.0449137, 0.0355252, -0.0726105, 0.0269872, -0.0284742, -0.1006703, -0.0679209, 0.0430224, 0.0056519, 0.0150308, 0.0221051, -0.0017832, -0.1187641, 0.0850688, -0.1024977, -0.0109619, -0.0816212, -0.1186036, -0.0404918, 0.0564209, -0.053023, -0.0616692, 0.0200547, 0.0019421, -0.0910394], [-0.091356, 0.0289019, 0.0569138, 0.0345021, -0.0115578, 0.0296036, -0.1170214, -0.0684042, 0.0076764, -0.0864345, -0.0876896, -0.0836095, 0.0178978, -0.0593817, 0.0017346, 0.042456, 0.0551554, -0.0529997, 0.086325, 0.014655, 0.0109099, 0.005451, 0.0682141, -0.0124314, 0.0137888, -0.0615964, -0.1225081, -0.1206603, -0.073808, -0.0108306, 0.0056348, -0.0084617, 0.0119333, -0.0946668, -0.0006797, 0.0015222, -0.1054978, -0.0173771, -0.0806982, 0.0240086, 0.0388928, 0.0123231, 0.0230655, 0.1220301, 0.0291663, -0.0253283, 0.0796698, -0.0819955, -0.126239,